{"learner":{"attributes":{"best_iteration":"99","best_ntree_limit":"100","scikit_learn":"{\"use_label_encoder\": true, \"n_estimators\": 100, \"objective\": \"multi:softprob\", \"max_depth\": 3, \"learning_rate\": null, \"verbosity\": null, \"booster\": null, \"tree_method\": null, \"gamma\": null, \"min_child_weight\": null, \"max_delta_step\": null, \"subsample\": null, \"colsample_bytree\": null, \"colsample_bylevel\": null, \"colsample_bynode\": null, \"reg_alpha\": null, \"reg_lambda\": null, \"scale_pos_weight\": null, \"base_score\": null, \"missing\": NaN, \"num_parallel_tree\": null, \"random_state\": null, \"n_jobs\": null, \"monotone_constraints\": null, \"interaction_constraints\": null, \"importance_type\": null, \"gpu_id\": null, \"validate_parameters\": null, \"predictor\": null, \"enable_categorical\": false, \"kwargs\": {\"seed\": 42, \"eta\": 0.3, \"num_class\": 2}, \"classes_\": [0, 1], \"n_classes_\": 2, \"_le\": {\"classes_\": [0, 1]}, \"_estimator_type\": \"classifier\"}"},"feature_names":["Profile","Distance","Experience","Number of the work spheres","Friends count","Orders","Reviews","Rate"],"feature_types":["int","float","int","int","int","int","int","float"],"gradient_booster":{"model":{"gbtree_model_param":{"num_trees":"200","size_leaf_vector":"0"},"tree_info":[0,1,0,1,0,1,0,1,0,1,0,1,0,1,0,1,0,1,0,1,0,1,0,1,0,1,0,1,0,1,0,1,0,1,0,1,0,1,0,1,0,1,0,1,0,1,0,1,0,1,0,1,0,1,0,1,0,1,0,1,0,1,0,1,0,1,0,1,0,1,0,1,0,1,0,1,0,1,0,1,0,1,0,1,0,1,0,1,0,1,0,1,0,1,0,1,0,1,0,1,0,1,0,1,0,1,0,1,0,1,0,1,0,1,0,1,0,1,0,1,0,1,0,1,0,1,0,1,0,1,0,1,0,1,0,1,0,1,0,1,0,1,0,1,0,1,0,1,0,1,0,1,0,1,0,1,0,1,0,1,0,1,0,1,0,1,0,1,0,1,0,1,0,1,0,1,0,1,0,1,0,1,0,1,0,1,0,1,0,1,0,1,0,1,0,1,0,1,0,1],"trees":[{"base_weights":[-1.18971065E-1,9.89071E-1,-5.782313E-1,6.6E-1,-9.3586004E-1,-4E-1,7.6086956E-1,-9.8136646E-1,-2.173913E-1],"categories":[],"categories_nodes":[],"categories_segments":[],"categories_sizes":[],"default_left":[true,false,true,true,true,false,false,false,false],"id":0,"left_children":[1,-1,3,5,7,-1,-1,-1,-1],"loss_changes":[1.5883348E2,0E0,9.826105E1,5.6504326E0,5.3938446E0,0E0,0E0,0E0,0E0],"parents":[2147483647,0,0,2,2,3,3,4,4],"right_children":[2,-1,4,6,8,-1,-1,-1,-1],"split_conditions":[5E-1,2.967213E-1,3.15E0,9.5E0,3.785E1,-1.20000005E-1,2.2826087E-1,-2.9440996E-1,-6.521739E-2],"split_indices":[0,0,7,5,1,0,0,0,0],"split_type":[0,0,0,0,0,0,0,0,0],"sum_hessian":[3.1E2,9.05E1,2.195E2,4.9E1,1.705E2,4E0,4.5E1,1.6E2,1.05E1],"tree_param":{"num_deleted":"0","num_feature":"8","num_nodes":"9","size_leaf_vector":"0"}},{"base_weights":[1.18971065E-1,-9.89071E-1,5.782313E-1,-6.6E-1,9.3586004E-1,4E-1,-7.6086956E-1,9.8136646E-1,2.173913E-1],"categories":[],"categories_nodes":[],"categories_segments":[],"categories_sizes":[],"default_left":[true,false,true,true,true,false,false,false,false],"id":1,"left_children":[1,-1,3,5,7,-1,-1,-1,-1],"loss_changes":[1.5883348E2,0E0,9.826105E1,5.6504326E0,5.3938446E0,0E0,0E0,0E0,0E0],"parents":[2147483647,0,0,2,2,3,3,4,4],"right_children":[2,-1,4,6,8,-1,-1,-1,-1],"split_conditions":[5E-1,-2.967213E-1,3.15E0,9.5E0,3.785E1,1.20000005E-1,-2.2826087E-1,2.9440996E-1,6.521739E-2],"split_indices":[0,0,7,5,1,0,0,0,0],"split_type":[0,0,0,0,0,0,0,0,0],"sum_hessian":[3.1E2,9.05E1,2.195E2,4.9E1,1.705E2,4E0,4.5E1,1.6E2,1.05E1],"tree_param":{"num_deleted":"0","num_feature":"8","num_nodes":"9","size_leaf_vector":"0"}},{"base_weights":[-9.109986E-2,7.66968E-1,-4.421112E-1,5.87773E-1,-7.065639E-1,-1.4074384E-1,7.922061E-1,-7.769651E-1,-1.4130048E-1],"categories":[],"categories_nodes":[],"categories_segments":[],"categories_sizes":[],"default_left":[true,false,true,true,true,false,false,false,false],"id":2,"left_children":[1,-1,3,5,7,-1,-1,-1,-1],"loss_changes":[8.7083954E1,0E0,5.625589E1,6.431656E0,6.4003906E0,0E0,0E0,0E0,0E0],"parents":[2147483647,0,0,2,2,3,3,4,4],"right_children":[2,-1,4,6,8,-1,-1,-1,-1],"split_conditions":[5E-1,2.3009041E-1,2.95E0,4.5E0,3.11E1,-4.222315E-2,2.3766184E-1,-2.3308954E-1,-4.2390145E-2],"split_indices":[0,0,7,6,1,0,0,0,0],"split_type":[0,0,0,0,0,0,0,0,0],"sum_hessian":[2.8700568E2,8.297743E1,2.0402824E2,4.143627E1,1.6259196E2,9.148008E0,3.228826E1,1.4425153E2,1.834044E1],"tree_param":{"num_deleted":"0","num_feature":"8","num_nodes":"9","size_leaf_vector":"0"}},{"base_weights":[9.10998E-2,-7.66968E-1,4.421111E-1,-5.8777314E-1,7.0656383E-1,1.4074375E-1,-7.922062E-1,7.7696496E-1,1.413004E-1],"categories":[],"categories_nodes":[],"categories_segments":[],"categories_sizes":[],"default_left":[true,false,true,true,true,false,false,false,false],"id":3,"left_children":[1,-1,3,5,7,-1,-1,-1,-1],"loss_changes":[8.708395E1,0E0,5.6255898E1,6.431658E0,6.4003906E0,0E0,0E0,0E0,0E0],"parents":[2147483647,0,0,2,2,3,3,4,4],"right_children":[2,-1,4,6,8,-1,-1,-1,-1],"split_conditions":[5E-1,-2.3009041E-1,2.95E0,4.5E0,3.11E1,4.2223126E-2,-2.3766188E-1,2.3308949E-1,4.239012E-2],"split_indices":[0,0,7,6,1,0,0,0,0],"split_type":[0,0,0,0,0,0,0,0,0],"sum_hessian":[2.8700568E2,8.297743E1,2.0402824E2,4.143627E1,1.6259196E2,9.148008E0,3.228826E1,1.4425153E2,1.834044E1],"tree_param":{"num_deleted":"0","num_feature":"8","num_nodes":"9","size_leaf_vector":"0"}},{"base_weights":[-7.614558E-2,6.647564E-1,-3.703252E-1,3.8287562E-1,-6.41625E-1,3.779234E-2,7.3524714E-1,-6.727608E-1,-1.6898467E-1],"categories":[],"categories_nodes":[],"categories_segments":[],"categories_sizes":[],"default_left":[true,false,true,true,true,false,false,false,false],"id":4,"left_children":[1,-1,3,5,7,-1,-1,-1,-1],"loss_changes":[5.3955444E1,0E0,3.6420006E1,5.748728E0,1.8070793E0,0E0,0E0,0E0,0E0],"parents":[2147483647,0,0,2,2,3,3,4,4],"right_children":[2,-1,4,6,8,-1,-1,-1,-1],"split_conditions":[5E-1,1.9942693E-1,3.35E0,2.925E1,3.9E1,1.1337702E-2,2.2057416E-1,-2.0182824E-1,-5.06954E-2],"split_indices":[0,0,7,1,1,0,0,0,0],"split_type":[0,0,0,0,0,0,0,0,0],"sum_hessian":[2.4541995E2,6.939257E1,1.7602737E2,4.6505203E1,1.2952217E2,2.4054996E1,2.2450209E1,1.2111984E2,8.40233E0],"tree_param":{"num_deleted":"0","num_feature":"8","num_nodes":"9","size_leaf_vector":"0"}},{"base_weights":[7.614558E-2,-6.647564E-1,3.7032524E-1,-3.8287562E-1,6.41625E-1,-3.7792347E-2,-7.3524714E-1,6.727608E-1,1.6898476E-1],"categories":[],"categories_nodes":[],"categories_segments":[],"categories_sizes":[],"default_left":[true,false,true,true,true,false,false,false,false],"id":5,"left_children":[1,-1,3,5,7,-1,-1,-1,-1],"loss_changes":[5.3955444E1,0E0,3.6420006E1,5.7487273E0,1.8070793E0,0E0,0E0,0E0,0E0],"parents":[2147483647,0,0,2,2,3,3,4,4],"right_children":[2,-1,4,6,8,-1,-1,-1,-1],"split_conditions":[5E-1,-1.9942693E-1,3.35E0,2.925E1,3.9E1,-1.1337705E-2,-2.2057416E-1,2.0182824E-1,5.069543E-2],"split_indices":[0,0,7,1,1,0,0,0,0],"split_type":[0,0,0,0,0,0,0,0,0],"sum_hessian":[2.4541995E2,6.939257E1,1.7602737E2,4.6505203E1,1.2952217E2,2.4054996E1,2.2450209E1,1.2111984E2,8.40233E0],"tree_param":{"num_deleted":"0","num_feature":"8","num_nodes":"9","size_leaf_vector":"0"}},{"base_weights":[-6.6578455E-2,6.060991E-1,-3.2105E-1,4.163432E-1,-5.36704E-1,-2.0613591E-1,6.3728076E-1,-6.149533E-1,-8.096553E-2],"categories":[],"categories_nodes":[],"categories_segments":[],"categories_sizes":[],"default_left":[true,false,true,true,true,false,false,false,false],"id":6,"left_children":[1,-1,3,5,7,-1,-1,-1,-1],"loss_changes":[3.529507E1,0E0,2.3985577E1,4.8589554E0,4.088745E0,0E0,0E0,0E0,0E0],"parents":[2147483647,0,0,2,2,3,3,4,4],"right_children":[2,-1,4,6,8,-1,-1,-1,-1],"split_conditions":[5E-1,1.8182975E-1,2.95E0,4.5E0,3.11E1,-6.1840776E-2,1.9118424E-1,-1.8448599E-1,-2.4289658E-2],"split_indices":[0,0,7,6,1,0,0,0,0],"split_type":[0,0,0,0,0,0,0,0,0],"sum_hessian":[2.0405339E2,5.56266E1,1.484268E2,3.337521E1,1.1505159E2,8.760366E0,2.4614843E1,9.789406E1,1.7157534E1],"tree_param":{"num_deleted":"0","num_feature":"8","num_nodes":"9","size_leaf_vector":"0"}},{"base_weights":[6.657838E-2,-6.060991E-1,3.210499E-1,-4.163432E-1,5.3670394E-1,2.0613591E-1,-6.3728076E-1,6.1495316E-1,8.096558E-2],"categories":[],"categories_nodes":[],"categories_segments":[],"categories_sizes":[],"default_left":[true,false,true,true,true,false,false,false,false],"id":7,"left_children":[1,-1,3,5,7,-1,-1,-1,-1],"loss_changes":[3.5295067E1,0E0,2.398557E1,4.858955E0,4.088745E0,0E0,0E0,0E0,0E0],"parents":[2147483647,0,0,2,2,3,3,4,4],"right_children":[2,-1,4,6,8,-1,-1,-1,-1],"split_conditions":[5E-1,-1.8182975E-1,2.95E0,4.5E0,3.11E1,6.1840776E-2,-1.9118424E-1,1.8448596E-1,2.4289675E-2],"split_indices":[0,0,7,6,1,0,0,0,0],"split_type":[0,0,0,0,0,0,0,0,0],"sum_hessian":[2.0405338E2,5.56266E1,1.4842677E2,3.337521E1,1.1505157E2,8.760366E0,2.4614843E1,9.7894035E1,1.7157534E1],"tree_param":{"num_deleted":"0","num_feature":"8","num_nodes":"9","size_leaf_vector":"0"}},{"base_weights":[-5.871757E-2,3.5243583E-1,-4.0881404E-1,1.7263946E-1,5.788274E-1,5.367211E-1,-5.6006867E-1,5.511897E-1,-1.1148584E-1,6.7453647E-1,3.934778E-1,-1.2026323E-1,-5.7086617E-1],"categories":[],"categories_nodes":[],"categories_segments":[],"categories_sizes":[],"default_left":[true,true,true,true,true,false,true,false,false,false,false,false,false],"id":8,"left_children":[1,3,5,7,9,-1,11,-1,-1,-1,-1,-1,-1],"loss_changes":[2.4220053E1,3.053008E0,1.3286599E1,4.8581696E0,3.3528328E-1,0E0,3.0539703E-1,0E0,0E0,0E0,0E0,0E0,0E0],"parents":[2147483647,0,0,1,1,2,2,3,3,4,4,6,6],"right_children":[2,4,6,8,10,-1,12,-1,-1,-1,-1,-1,-1],"split_conditions":[3.95E0,2.925E1,5E-1,5E-1,6.25E1,1.6101635E-1,5E-1,1.6535692E-1,-3.3445753E-2,2.0236094E-1,1.1804334E-1,-3.607897E-2,-1.7125985E-1],"split_indices":[7,1,0,0,5,0,6,0,0,0,0,0,0],"split_type":[0,0,0,0,0,0,0,0,0,0,0,0,0],"sum_hessian":[1.6626006E2,7.645941E1,8.980064E1,4.3597538E1,3.286187E1,1.203266E1,7.776798E1,1.8289642E1,2.5307896E1,1.9930878E1,1.2930993E1,2.1543562E0,7.5613625E1],"tree_param":{"num_deleted":"0","num_feature":"8","num_nodes":"13","size_leaf_vector":"0"}},{"base_weights":[5.871752E-2,-3.5243586E-1,4.0881398E-1,-1.7263949E-1,-5.788273E-1,-5.367211E-1,5.6006867E-1,-5.511897E-1,1.114858E-1,-6.7453647E-1,-3.9347777E-1,1.2026319E-1,5.7086617E-1],"categories":[],"categories_nodes":[],"categories_segments":[],"categories_sizes":[],"default_left":[true,true,true,true,true,false,true,false,false,false,false,false,false],"id":9,"left_children":[1,3,5,7,9,-1,11,-1,-1,-1,-1,-1,-1],"loss_changes":[2.4220049E1,3.053008E0,1.3286599E1,4.8581696E0,3.3528233E-1,0E0,3.0539894E-1,0E0,0E0,0E0,0E0,0E0,0E0],"parents":[2147483647,0,0,1,1,2,2,3,3,4,4,6,6],"right_children":[2,4,6,8,10,-1,12,-1,-1,-1,-1,-1,-1],"split_conditions":[3.95E0,2.925E1,5E-1,5E-1,6.25E1,-1.6101635E-1,5E-1,-1.6535692E-1,3.3445742E-2,-2.0236094E-1,-1.1804333E-1,3.607896E-2,1.7125985E-1],"split_indices":[7,1,0,0,5,0,6,0,0,0,0,0,0],"split_type":[0,0,0,0,0,0,0,0,0,0,0,0,0],"sum_hessian":[1.6626004E2,7.645941E1,8.980063E1,4.359754E1,3.286187E1,1.20326605E1,7.776797E1,1.8289644E1,2.5307896E1,1.9930876E1,1.2930992E1,2.154356E0,7.561361E1],"tree_param":{"num_deleted":"0","num_feature":"8","num_nodes":"13","size_leaf_vector":"0"}},{"base_weights":[-4.9318805E-2,5.425556E-1,-2.4578196E-1,2.5969505E-1,-4.8737583E-1,2.9610524E-2,6.008152E-1,-5.541365E-1,-5.5157006E-2],"categories":[],"categories_nodes":[],"categories_segments":[],"categories_sizes":[],"default_left":[true,false,true,true,true,false,false,false,false],"id":10,"left_children":[1,-1,3,5,7,-1,-1,-1,-1],"loss_changes":[1.6278316E1,0E0,1.2940697E1,2.6967154E0,2.0281067E0,0E0,0E0,0E0,0E0],"parents":[2147483647,0,0,2,2,3,3,4,4],"right_children":[2,-1,4,6,8,-1,-1,-1,-1],"split_conditions":[5E-1,1.6276668E-1,3.25E0,2.925E1,3.785E1,8.883158E-3,1.8024457E-1,-1.6624096E-1,-1.6547102E-2],"split_indices":[0,0,7,1,1,0,0,0,0],"split_type":[0,0,0,0,0,0,0,0,0],"sum_hessian":[1.3784381E2,3.391331E1,1.039305E2,3.3585663E1,7.034483E1,2.0706196E1,1.2879465E1,6.0688747E1,9.656085E0],"tree_param":{"num_deleted":"0","num_feature":"8","num_nodes":"9","size_leaf_vector":"0"}},{"base_weights":[4.9318902E-2,-5.425556E-1,2.4578205E-1,-2.59695E-1,4.8737586E-1,-2.9610429E-2,-6.008152E-1,5.541366E-1,5.5157002E-2],"categories":[],"categories_nodes":[],"categories_segments":[],"categories_sizes":[],"default_left":[true,false,true,true,true,false,false,false,false],"id":11,"left_children":[1,-1,3,5,7,-1,-1,-1,-1],"loss_changes":[1.627832E1,0E0,1.2940695E1,2.6967165E0,2.0281086E0,0E0,0E0,0E0,0E0],"parents":[2147483647,0,0,2,2,3,3,4,4],"right_children":[2,-1,4,6,8,-1,-1,-1,-1],"split_conditions":[5E-1,-1.6276668E-1,3.25E0,2.925E1,3.785E1,-8.883129E-3,-1.8024457E-1,1.6624098E-1,1.65471E-2],"split_indices":[0,0,7,1,1,0,0,0,0],"split_type":[0,0,0,0,0,0,0,0,0],"sum_hessian":[1.3784381E2,3.3913307E1,1.03930504E2,3.358566E1,7.034485E1,2.0706194E1,1.2879464E1,6.0688763E1,9.656085E0],"tree_param":{"num_deleted":"0","num_feature":"8","num_nodes":"9","size_leaf_vector":"0"}},{"base_weights":[-4.341662E-2,2.7556804E-1,-3.5254106E-1,1.2306752E-1,4.9315152E-1,4.8283747E-1,-4.968329E-1,-3.846051E-1,2.8989306E-1,2.1611267E-1,5.782142E-1,-5.3244424E-1,-1.8727234E-1],"categories":[],"categories_nodes":[],"categories_segments":[],"categories_sizes":[],"default_left":[true,true,true,true,true,false,true,false,false,false,false,false,false],"id":12,"left_children":[1,3,5,7,9,-1,11,-1,-1,-1,-1,-1,-1],"loss_changes":[1.1326601E1,1.817667E0,7.2640963E0,3.0430782E0,4.1691303E-1,0E0,4.5350456E-1,0E0,0E0,0E0,0E0,0E0,0E0],"parents":[2147483647,0,0,1,1,2,2,3,3,4,4,6,6],"right_children":[2,4,6,8,10,-1,12,-1,-1,-1,-1,-1,-1],"split_conditions":[3.85E0,2.925E1,5E-1,4.5E0,4.5E0,1.4485125E-1,3.86E1,-1.1538154E-1,8.696792E-2,6.4833805E-2,1.7346427E-1,-1.5973328E-1,-5.6181703E-2],"split_indices":[7,1,0,6,3,0,1,0,0,0,0,0,0],"split_type":[0,0,0,0,0,0,0,0,0,0,0,0,0],"sum_hessian":[1.1288209E2,5.560844E1,5.7273647E1,3.3614338E1,2.1994104E1,8.090042E0,4.9183605E1,7.9910526E0,2.5623285E1,5.998467E0,1.5995637E1,4.3463623E1,5.7199793E0],"tree_param":{"num_deleted":"0","num_feature":"8","num_nodes":"13","size_leaf_vector":"0"}},{"base_weights":[4.341655E-2,-2.75568E-1,3.525409E-1,-1.2306746E-1,-4.931515E-1,-4.8283747E-1,4.9683285E-1,3.846052E-1,-2.8989303E-1,-2.1611263E-1,-5.782142E-1,5.324442E-1,1.8727228E-1],"categories":[],"categories_nodes":[],"categories_segments":[],"categories_sizes":[],"default_left":[true,true,true,true,true,false,true,false,false,false,false,false,false],"id":13,"left_children":[1,3,5,7,9,-1,11,-1,-1,-1,-1,-1,-1],"loss_changes":[1.1326592E1,1.8176675E0,7.2640977E0,3.0430782E0,4.1691208E-1,0E0,4.5350456E-1,0E0,0E0,0E0,0E0,0E0,0E0],"parents":[2147483647,0,0,1,1,2,2,3,3,4,4,6,6],"right_children":[2,4,6,8,10,-1,12,-1,-1,-1,-1,-1,-1],"split_conditions":[3.85E0,2.925E1,5E-1,4.5E0,4.5E0,-1.4485125E-1,3.86E1,1.1538156E-1,-8.6967915E-2,-6.483379E-2,-1.7346427E-1,1.5973327E-1,5.6181688E-2],"split_indices":[7,1,0,6,3,0,1,0,0,0,0,0,0],"split_type":[0,0,0,0,0,0,0,0,0,0,0,0,0],"sum_hessian":[1.1288206E2,5.5608433E1,5.727363E1,3.361433E1,2.19941E1,8.090044E0,4.9183582E1,7.9910517E0,2.562328E1,5.998466E0,1.5995634E1,4.3463604E1,5.7199793E0],"tree_param":{"num_deleted":"0","num_feature":"8","num_nodes":"13","size_leaf_vector":"0"}},{"base_weights":[-3.789579E-2,5.1245743E-1,-2.0713113E-1,2.6655602E-1,-4.0345523E-1,-3.1220827E-1,5.544781E-1,-5.49416E-1,-7.525335E-2],"categories":[],"categories_nodes":[],"categories_segments":[],"categories_sizes":[],"default_left":[true,false,true,true,true,false,false,false,false],"id":14,"left_children":[1,-1,3,5,7,-1,-1,-1,-1],"loss_changes":[9.070403E0,0E0,7.019256E0,3.9024699E0,2.494851E0,0E0,0E0,0E0,0E0],"parents":[2147483647,0,0,2,2,3,3,4,4],"right_children":[2,-1,4,6,8,-1,-1,-1,-1],"split_conditions":[5E-1,1.5373723E-1,2.95E0,4.5E0,2.02E1,-9.3662485E-2,1.6634344E-1,-1.6482481E-1,-2.2576006E-2],"split_indices":[0,0,7,6,1,0,0,0,0],"split_type":[0,0,0,0,0,0,0,0,0],"sum_hessian":[9.524579E1,2.1923267E1,7.332252E1,2.1379858E1,5.194266E1,7.0745854E0,1.4305272E1,3.54867E1,1.6455965E1],"tree_param":{"num_deleted":"0","num_feature":"8","num_nodes":"9","size_leaf_vector":"0"}},{"base_weights":[3.789578E-2,-5.1245743E-1,2.0713115E-1,-2.6655602E-1,4.0345523E-1,3.122083E-1,-5.544781E-1,5.49416E-1,7.525335E-2],"categories":[],"categories_nodes":[],"categories_segments":[],"categories_sizes":[],"default_left":[true,false,true,true,true,false,false,false,false],"id":15,"left_children":[1,-1,3,5,7,-1,-1,-1,-1],"loss_changes":[9.070404E0,0E0,7.019256E0,3.9024704E0,2.494851E0,0E0,0E0,0E0,0E0],"parents":[2147483647,0,0,2,2,3,3,4,4],"right_children":[2,-1,4,6,8,-1,-1,-1,-1],"split_conditions":[5E-1,-1.5373723E-1,2.95E0,4.5E0,2.02E1,9.366249E-2,-1.6634344E-1,1.6482481E-1,2.2576006E-2],"split_indices":[0,0,7,6,1,0,0,0,0],"split_type":[0,0,0,0,0,0,0,0,0],"sum_hessian":[9.524579E1,2.1923267E1,7.332252E1,2.1379858E1,5.194266E1,7.074585E0,1.4305272E1,3.54867E1,1.6455965E1],"tree_param":{"num_deleted":"0","num_feature":"8","num_nodes":"9","size_leaf_vector":"0"}},{"base_weights":[-3.2177612E-2,4.9665558E-1,-1.810088E-1,2.3279896E-1,-3.581789E-1,-2.264659E-1,5.2125525E-1,-5.3218573E-1,-5.4722503E-2],"categories":[],"categories_nodes":[],"categories_segments":[],"categories_sizes":[],"default_left":[true,false,true,true,true,false,false,false,false],"id":16,"left_children":[1,-1,3,5,7,-1,-1,-1,-1],"loss_changes":[6.3392944E0,0E0,4.679861E0,2.688333E0,2.3097453E0,0E0,0E0,0E0,0E0],"parents":[2147483647,0,0,2,2,3,3,4,4],"right_children":[2,-1,4,6,8,-1,-1,-1,-1],"split_conditions":[5E-1,1.4899668E-1,2.95E0,4.5E0,2.02E1,-6.793977E-2,1.5637659E-1,-1.5965572E-1,-1.641675E-2],"split_indices":[0,0,7,6,1,0,0,0,0],"split_type":[0,0,0,0,0,0,0,0,0],"sum_hessian":[7.840088E1,1.6705425E1,6.169545E1,1.8401636E1,4.3293816E1,7.181899E0,1.1219738E1,2.7036755E1,1.6257061E1],"tree_param":{"num_deleted":"0","num_feature":"8","num_nodes":"9","size_leaf_vector":"0"}},{"base_weights":[3.217779E-2,-4.9665558E-1,1.8100893E-1,-2.3279887E-1,3.5817897E-1,2.2646591E-1,-5.212552E-1,5.321858E-1,5.4722477E-2],"categories":[],"categories_nodes":[],"categories_segments":[],"categories_sizes":[],"default_left":[true,false,true,true,true,false,false,false,false],"id":17,"left_children":[1,-1,3,5,7,-1,-1,-1,-1],"loss_changes":[6.339294E0,0E0,4.6798606E0,2.688333E0,2.3097463E0,0E0,0E0,0E0,0E0],"parents":[2147483647,0,0,2,2,3,3,4,4],"right_children":[2,-1,4,6,8,-1,-1,-1,-1],"split_conditions":[5E-1,-1.4899668E-1,2.95E0,4.5E0,2.02E1,6.793977E-2,-1.5637657E-1,1.5965575E-1,1.6416743E-2],"split_indices":[0,0,7,6,1,0,0,0,0],"split_type":[0,0,0,0,0,0,0,0,0],"sum_hessian":[7.840088E1,1.6705416E1,6.169546E1,1.8401634E1,4.3293827E1,7.1819E0,1.1219734E1,2.7036768E1,1.6257061E1],"tree_param":{"num_deleted":"0","num_feature":"8","num_nodes":"9","size_leaf_vector":"0"}},{"base_weights":[-2.6433313E-2,4.8175395E-1,-1.5590034E-1,8.973802E-2,-4.225706E-1,-1.3481463E-1,4.14709E-1,2.7162889E-2,-4.8609364E-1],"categories":[],"categories_nodes":[],"categories_segments":[],"categories_sizes":[],"default_left":[true,false,true,true,true,false,false,false,false],"id":18,"left_children":[1,-1,3,5,7,-1,-1,-1,-1],"loss_changes":[4.4440126E0,0E0,3.5539725E0,2.1549728E0,7.5345945E-1,0E0,0E0,0E0,0E0],"parents":[2147483647,0,0,2,2,3,3,4,4],"right_children":[2,-1,4,6,8,-1,-1,-1,-1],"split_conditions":[5E-1,1.4452618E-1,3.85E0,2.925E1,3.5E0,-4.0444393E-2,1.2441271E-1,8.148867E-3,-1.458281E-1],"split_indices":[0,0,7,1,6,0,0,0,0],"split_type":[0,0,0,0,0,0,0,0,0],"sum_hessian":[6.540332E1,1.2726782E1,5.267654E1,2.7764902E1,2.491164E1,1.6765327E1,1.0999574E1,3.1540253E0,2.1757614E1],"tree_param":{"num_deleted":"0","num_feature":"8","num_nodes":"9","size_leaf_vector":"0"}},{"base_weights":[2.643336E-2,-4.8175395E-1,1.5590037E-1,-8.973797E-2,4.225706E-1,1.3481472E-1,-4.14709E-1,-2.716279E-2,4.8609367E-1],"categories":[],"categories_nodes":[],"categories_segments":[],"categories_sizes":[],"default_left":[true,false,true,true,true,false,false,false,false],"id":19,"left_children":[1,-1,3,5,7,-1,-1,-1,-1],"loss_changes":[4.444012E0,0E0,3.5539718E0,2.1549733E0,7.53459E-1,0E0,0E0,0E0,0E0],"parents":[2147483647,0,0,2,2,3,3,4,4],"right_children":[2,-1,4,6,8,-1,-1,-1,-1],"split_conditions":[5E-1,-1.4452618E-1,3.85E0,2.925E1,3.5E0,4.044442E-2,-1.2441271E-1,-8.148838E-3,1.4582811E-1],"split_indices":[0,0,7,1,6,0,0,0,0],"split_type":[0,0,0,0,0,0,0,0,0],"sum_hessian":[6.540332E1,1.272678E1,5.267654E1,2.77649E1,2.491164E1,1.6765326E1,1.0999574E1,3.1540258E0,2.1757614E1],"tree_param":{"num_deleted":"0","num_feature":"8","num_nodes":"9","size_leaf_vector":"0"}},{"base_weights":[-2.0706447E-2,4.6666214E-1,-1.2967047E-1,1.3602526E-1,-3.401523E-1,-3.8931664E-2,5.0792634E-1,4.2067323E-2,-5.289997E-1],"categories":[],"categories_nodes":[],"categories_segments":[],"categories_sizes":[],"default_left":[true,false,true,true,true,false,false,false,false],"id":20,"left_children":[1,-1,3,5,7,-1,-1,-1,-1],"loss_changes":[3.111457E0,0E0,2.7158337E0,1.4391749E0,1.9654369E0,0E0,0E0,0E0,0E0],"parents":[2147483647,0,0,2,2,3,3,4,4],"right_children":[2,-1,4,6,8,-1,-1,-1,-1],"split_conditions":[5E-1,1.3999864E-1,3.25E0,2.925E1,9.5E0,-1.1679499E-2,1.523779E-1,1.2620198E-2,-1.5869991E-1],"split_indices":[0,0,7,1,4,0,0,0,0],"split_type":[0,0,0,0,0,0,0,0,0],"sum_hessian":[5.6450478E1,9.715003E0,4.6735474E1,2.0814556E1,2.592092E1,1.4764208E1,6.050348E0,8.828873E0,1.7092047E1],"tree_param":{"num_deleted":"0","num_feature":"8","num_nodes":"9","size_leaf_vector":"0"}},{"base_weights":[2.0706331E-2,-4.6666214E-1,1.2967043E-1,-1.3602525E-1,3.4015223E-1,3.8931675E-2,-5.0792634E-1,-4.2067543E-2,5.289997E-1],"categories":[],"categories_nodes":[],"categories_segments":[],"categories_sizes":[],"default_left":[true,false,true,true,true,false,false,false,false],"id":21,"left_children":[1,-1,3,5,7,-1,-1,-1,-1],"loss_changes":[3.1114578E0,0E0,2.7158327E0,1.439175E0,1.9654381E0,0E0,0E0,0E0,0E0],"parents":[2147483647,0,0,2,2,3,3,4,4],"right_children":[2,-1,4,6,8,-1,-1,-1,-1],"split_conditions":[5E-1,-1.3999864E-1,3.25E0,2.925E1,9.5E0,1.1679503E-2,-1.523779E-1,-1.2620264E-2,1.5869991E-1],"split_indices":[0,0,7,1,4,0,0,0,0],"split_type":[0,0,0,0,0,0,0,0,0],"sum_hessian":[5.6450478E1,9.71501E0,4.6735466E1,2.0814554E1,2.5920912E1,1.4764207E1,6.0503473E0,8.82887E0,1.7092043E1],"tree_param":{"num_deleted":"0","num_feature":"8","num_nodes":"9","size_leaf_vector":"0"}},{"base_weights":[-1.4475006E-2,4.5059827E-1,-1.0522854E-1,1.8369132E-1,-2.5945616E-1,-2.5574538E-1,4.9931282E-1,-5.07389E-1,3.5715885E-2],"categories":[],"categories_nodes":[],"categories_segments":[],"categories_sizes":[],"default_left":[true,false,true,true,true,false,false,false,false],"id":22,"left_children":[1,-1,3,5,7,-1,-1,-1,-1],"loss_changes":[2.181739E0,0E0,1.9691536E0,2.2904003E0,2.1059475E0,0E0,0E0,0E0,0E0],"parents":[2147483647,0,0,2,2,3,3,4,4],"right_children":[2,-1,4,6,8,-1,-1,-1,-1],"split_conditions":[5E-1,1.3517949E-1,2.95E0,4.5E0,2.02E1,-7.672362E-2,1.4979385E-1,-1.522167E-1,1.0714766E-2],"split_indices":[0,0,7,6,1,0,0,0,0],"split_type":[0,0,0,0,0,0,0,0,0],"sum_hessian":[4.956794E1,7.445882E0,4.2122055E1,1.4593156E1,2.75289E1,6.1793776E0,8.413778E0,1.4570932E1,1.2957968E1],"tree_param":{"num_deleted":"0","num_feature":"8","num_nodes":"9","size_leaf_vector":"0"}},{"base_weights":[1.4475074E-2,-4.505982E-1,1.05228506E-1,-1.8369131E-1,2.594561E-1,2.557454E-1,-4.9931282E-1,5.07389E-1,-3.5715908E-2],"categories":[],"categories_nodes":[],"categories_segments":[],"categories_sizes":[],"default_left":[true,false,true,true,true,false,false,false,false],"id":23,"left_children":[1,-1,3,5,7,-1,-1,-1,-1],"loss_changes":[2.181736E0,0E0,1.9691529E0,2.2904005E0,2.1059475E0,0E0,0E0,0E0,0E0],"parents":[2147483647,0,0,2,2,3,3,4,4],"right_children":[2,-1,4,6,8,-1,-1,-1,-1],"split_conditions":[5E-1,-1.3517947E-1,2.95E0,4.5E0,2.02E1,7.672363E-2,-1.4979385E-1,1.522167E-1,-1.0714773E-2],"split_indices":[0,0,7,6,1,0,0,0,0],"split_type":[0,0,0,0,0,0,0,0,0],"sum_hessian":[4.9567924E1,7.4458714E0,4.212205E1,1.4593156E1,2.7528894E1,6.179378E0,8.413777E0,1.4570929E1,1.2957967E1],"tree_param":{"num_deleted":"0","num_feature":"8","num_nodes":"9","size_leaf_vector":"0"}},{"base_weights":[-1.04322275E-2,4.3305308E-1,-8.894478E-2,-2.4807349E-1,1.7189646E-1,1.0122699E-2,-4.8221385E-1,6.6534734E-1,-1.5726003E-1],"categories":[],"categories_nodes":[],"categories_segments":[],"categories_sizes":[],"default_left":[true,false,true,true,true,false,false,false,false],"id":24,"left_children":[1,-1,3,5,7,-1,-1,-1,-1],"loss_changes":[1.5595889E0,0E0,1.6175948E0,1.454336E0,2.5357482E0,0E0,0E0,0E0,0E0],"parents":[2147483647,0,0,2,2,3,3,4,4],"right_children":[2,-1,4,6,8,-1,-1,-1,-1],"split_conditions":[5E-1,1.2991592E-1,3.11E1,3.05E0,9.5E0,3.0368099E-3,-1.4466417E-1,1.9960421E-1,-4.717801E-2],"split_indices":[0,0,1,7,4,0,0,0,0],"split_type":[0,0,0,0,0,0,0,0,0],"sum_hessian":[4.2684887E1,5.7409406E0,3.6943947E1,2.29761E1,1.3967844E1,1.1381748E1,1.1594354E1,5.180376E0,8.787468E0],"tree_param":{"num_deleted":"0","num_feature":"8","num_nodes":"9","size_leaf_vector":"0"}},{"base_weights":[1.0432278E-2,-4.3305314E-1,8.894488E-2,2.4807356E-1,-1.7189643E-1,-1.0122762E-2,4.8221385E-1,-6.6534734E-1,1.5726006E-1],"categories":[],"categories_nodes":[],"categories_segments":[],"categories_sizes":[],"default_left":[true,false,true,true,true,false,false,false,false],"id":25,"left_children":[1,-1,3,5,7,-1,-1,-1,-1],"loss_changes":[1.559591E0,0E0,1.6175954E0,1.4543374E0,2.5357482E0,0E0,0E0,0E0,0E0],"parents":[2147483647,0,0,2,2,3,3,4,4],"right_children":[2,-1,4,6,8,-1,-1,-1,-1],"split_conditions":[5E-1,-1.2991595E-1,3.11E1,3.05E0,9.5E0,-3.0368287E-3,1.4466417E-1,-1.9960421E-1,4.717802E-2],"split_indices":[0,0,1,7,4,0,0,0,0],"split_type":[0,0,0,0,0,0,0,0,0],"sum_hessian":[4.2684902E1,5.740946E0,3.694396E1,2.2976112E1,1.3967844E1,1.1381748E1,1.1594364E1,5.180376E0,8.787468E0],"tree_param":{"num_deleted":"0","num_feature":"8","num_nodes":"9","size_leaf_vector":"0"}},{"base_weights":[-6.564881E-3,1.23511374E-1,-2.3482072E-1,-8.239127E-2,2.7119517E-1,4.497561E-2,-4.0177858E-1,-3.1556672E-1,3.026004E-1,4.684125E-1,5.1291876E-2,-2.9264104E-1,5.4084504E-1],"categories":[],"categories_nodes":[],"categories_segments":[],"categories_sizes":[],"default_left":[true,true,true,true,true,true,false,false,false,false,false,false,false],"id":26,"left_children":[1,3,5,7,9,11,-1,-1,-1,-1,-1,-1,-1],"loss_changes":[1.1931868E0,8.017797E-1,6.990817E-1,1.1254172E0,6.3341403E-1,1.2209178E0,0E0,0E0,0E0,0E0,0E0,0E0,0E0],"parents":[2147483647,0,0,1,1,2,2,3,3,4,4,5,5],"right_children":[2,4,6,8,10,12,-1,-1,-1,-1,-1,-1,-1],"split_conditions":[3.85E0,9.5E0,9.5E0,2.925E1,2.95E0,3.705E1,-1.2053358E-1,-9.467002E-2,9.0780124E-2,1.4052375E-1,1.5387563E-2,-8.7792315E-2,1.6225351E-1],"split_indices":[7,6,4,1,7,1,0,0,0,0,0,0,0],"split_type":[0,0,0,0,0,0,0,0,0,0,0,0,0],"sum_hessian":[3.821043E1,2.4632174E1,1.3578258E1,1.0472871E1,1.4159302E1,5.3474126E0,8.2308445E0,6.6347647E0,3.8381064E0,6.8689194E0,7.290383E0,3.4251883E0,1.9222243E0],"tree_param":{"num_deleted":"0","num_feature":"8","num_nodes":"13","size_leaf_vector":"0"}},{"base_weights":[6.5645627E-3,-1.23511314E-1,2.3482E-1,8.239127E-2,-2.7119508E-1,-4.4976156E-2,4.01778E-1,3.1556672E-1,-3.0260044E-1,-4.684125E-1,-5.129181E-2,2.9264045E-1,-5.4084504E-1],"categories":[],"categories_nodes":[],"categories_segments":[],"categories_sizes":[],"default_left":[true,true,true,true,true,true,false,false,false,false,false,false,false],"id":27,"left_children":[1,3,5,7,9,11,-1,-1,-1,-1,-1,-1,-1],"loss_changes":[1.1931808E0,8.017794E-1,6.990814E-1,1.1254175E0,6.3341427E-1,1.2209159E0,0E0,0E0,0E0,0E0,0E0,0E0,0E0],"parents":[2147483647,0,0,1,1,2,2,3,3,4,4,5,5],"right_children":[2,4,6,8,10,12,-1,-1,-1,-1,-1,-1,-1],"split_conditions":[3.85E0,9.5E0,9.5E0,2.925E1,2.95E0,3.705E1,1.2053341E-1,9.467002E-2,-9.078014E-2,-1.4052375E-1,-1.53875435E-2,8.7792136E-2,-1.6225351E-1],"split_indices":[7,6,4,1,7,1,0,0,0,0,0,0,0],"split_type":[0,0,0,0,0,0,0,0,0,0,0,0,0],"sum_hessian":[3.8210415E1,2.4632174E1,1.3578242E1,1.0472873E1,1.4159301E1,5.347411E0,8.230831E0,6.6347656E0,3.8381069E0,6.8689175E0,7.290383E0,3.4251864E0,1.9222246E0],"tree_param":{"num_deleted":"0","num_feature":"8","num_nodes":"13","size_leaf_vector":"0"}},{"base_weights":[-1.5358314E-3,4.1469297E-1,-7.492052E-2,-3.1189725E-1,5.8936786E-2,7.7543825E-2,-4.4497696E-1,-1.3373187E-1,3.1732547E-1],"categories":[],"categories_nodes":[],"categories_segments":[],"categories_sizes":[],"default_left":[true,false,true,true,true,false,false,false,false],"id":28,"left_children":[1,-1,3,5,7,-1,-1,-1,-1],"loss_changes":[1.1185292E0,0E0,1.005318E0,6.247879E-1,1.0741177E0,0E0,0E0,0E0,0E0],"parents":[2147483647,0,0,2,2,3,3,4,4],"right_children":[2,-1,4,6,8,-1,-1,-1,-1],"split_conditions":[5E-1,1.24407895E-1,5.5E0,3.25E0,3.115E1,2.3263149E-2,-1.334931E-1,-4.0119562E-2,9.519765E-2],"split_indices":[0,0,3,7,1,0,0,0,0],"split_type":[0,0,0,0,0,0,0,0,0],"sum_hessian":[3.460211E1,4.4891677E0,3.0112946E1,1.0389547E1,1.9723398E1,2.752376E0,7.6371713E0,1.1574935E1,8.148462E0],"tree_param":{"num_deleted":"0","num_feature":"8","num_nodes":"9","size_leaf_vector":"0"}},{"base_weights":[1.5359354E-3,-4.14693E-1,7.492063E-2,3.118974E-1,-5.8936786E-2,-7.754379E-2,4.4497702E-1,1.3373195E-1,-3.173256E-1],"categories":[],"categories_nodes":[],"categories_segments":[],"categories_sizes":[],"default_left":[true,false,true,true,true,false,false,false,false],"id":29,"left_children":[1,-1,3,5,7,-1,-1,-1,-1],"loss_changes":[1.1185299E0,0E0,1.0053194E0,6.2478805E-1,1.0741187E0,0E0,0E0,0E0,0E0],"parents":[2147483647,0,0,2,2,3,3,4,4],"right_children":[2,-1,4,6,8,-1,-1,-1,-1],"split_conditions":[5E-1,-1.244079E-1,5.5E0,3.25E0,3.115E1,-2.3263138E-2,1.3349311E-1,4.0119585E-2,-9.5197685E-2],"split_indices":[0,0,3,7,1,0,0,0,0],"split_type":[0,0,0,0,0,0,0,0,0],"sum_hessian":[3.4602123E1,4.489168E0,3.0112955E1,1.0389555E1,1.97234E1,2.7523758E0,7.6371794E0,1.1574937E1,8.148462E0],"tree_param":{"num_deleted":"0","num_feature":"8","num_nodes":"9","size_leaf_vector":"0"}},{"base_weights":[6.6563394E-4,3.9372274E-1,-5.915083E-2,6.381594E-2,-2.8266084E-1,-1.5163688E-1,2.1945676E-1,1.3874188E-2,-4.6263838E-1],"categories":[],"categories_nodes":[],"categories_segments":[],"categories_sizes":[],"default_left":[true,false,true,true,true,false,false,false,false],"id":30,"left_children":[1,-1,3,5,7,-1,-1,-1,-1],"loss_changes":[8.049576E-1,0E0,8.349994E-1,7.03641E-1,5.7926965E-1,0E0,0E0,0E0,0E0],"parents":[2147483647,0,0,2,2,3,3,4,4],"right_children":[2,-1,4,6,8,-1,-1,-1,-1],"split_conditions":[5E-1,1.18116826E-1,3.85E0,9.5E0,9.5E0,-4.5491066E-2,6.583703E-2,4.1622566E-3,-1.3879152E-1],"split_indices":[0,0,7,6,4,0,0,0,0],"split_type":[0,0,0,0,0,0,0,0,0],"sum_hessian":[3.2246525E1,3.5218809E0,2.8724644E1,1.8990997E1,9.733646E0,7.975826E0,1.1015171E1,4.024954E0,5.7086926E0],"tree_param":{"num_deleted":"0","num_feature":"8","num_nodes":"9","size_leaf_vector":"0"}},{"base_weights":[-6.658436E-4,-3.9372286E-1,5.915067E-2,-6.381597E-2,2.8266066E-1,1.5163693E-1,-2.1945684E-1,-1.3874709E-2,4.6263835E-1],"categories":[],"categories_nodes":[],"categories_segments":[],"categories_sizes":[],"default_left":[true,false,true,true,true,false,false,false,false],"id":31,"left_children":[1,-1,3,5,7,-1,-1,-1,-1],"loss_changes":[8.049579E-1,0E0,8.3499837E-1,7.036414E-1,5.7927054E-1,0E0,0E0,0E0,0E0],"parents":[2147483647,0,0,2,2,3,3,4,4],"right_children":[2,-1,4,6,8,-1,-1,-1,-1],"split_conditions":[5E-1,-1.1811686E-1,3.85E0,9.5E0,9.5E0,4.549108E-2,-6.5837055E-2,-4.1624126E-3,1.3879152E-1],"split_indices":[0,0,7,6,4,0,0,0,0],"split_type":[0,0,0,0,0,0,0,0,0],"sum_hessian":[3.224652E1,3.5218844E0,2.8724638E1,1.8991E1,9.733639E0,7.9758263E0,1.1015173E1,4.0249486E0,5.7086897E0],"tree_param":{"num_deleted":"0","num_feature":"8","num_nodes":"9","size_leaf_vector":"0"}},{"base_weights":[-3.3890098E-4,-1.1481041E-1,2.1736538E-1,-2.5903717E-1,8.2693845E-2,-1.4261566E-1,3.1558537E-1,1.0919637E-1,-3.863937E-1,3.0449963E-1,-3.3849716E-1,4.0746668E-1,1.0990643E-2],"categories":[],"categories_nodes":[],"categories_segments":[],"categories_sizes":[],"default_left":[true,true,true,true,true,false,true,false,false,false,false,false,false],"id":32,"left_children":[1,3,5,7,9,-1,11,-1,-1,-1,-1,-1,-1],"loss_changes":[7.958653E-1,6.175717E-1,4.3414688E-1,6.207861E-1,9.990654E-1,0E0,2.4622345E-1,0E0,0E0,0E0,0E0,0E0,0E0],"parents":[2147483647,0,0,1,1,2,2,3,3,4,4,6,6],"right_children":[2,4,6,8,10,-1,12,-1,-1,-1,-1,-1,-1],"split_conditions":[1.15E1,2.96E1,2.5E0,2.45E0,6.15E1,-4.27847E-2,3.45E0,3.2758914E-2,-1.15918115E-1,9.134989E-2,-1.01549156E-1,1.2224001E-1,3.297193E-3],"split_indices":[3,1,6,7,5,0,7,0,0,0,0,0,0],"split_type":[0,0,0,0,0,0,0,0,0,0,0,0,0],"sum_hessian":[2.9934208E1,1.99283E1,1.0005907E1,1.1337547E1,8.590754E0,2.0479748E0,7.9579315E0,2.950162E0,8.387385E0,5.8087997E0,2.7819538E0,5.854255E0,2.1036766E0],"tree_param":{"num_deleted":"0","num_feature":"8","num_nodes":"13","size_leaf_vector":"0"}},{"base_weights":[3.390013E-4,1.14810474E-1,-2.1736525E-1,2.590372E-1,-8.2693756E-2,1.4261563E-1,-3.155852E-1,-1.0919634E-1,3.8639373E-1,-3.0449954E-1,3.3849704E-1,-4.0746665E-1,-1.099045E-2],"categories":[],"categories_nodes":[],"categories_segments":[],"categories_sizes":[],"default_left":[true,true,true,true,true,false,true,false,false,false,false,false,false],"id":33,"left_children":[1,3,5,7,9,-1,11,-1,-1,-1,-1,-1,-1],"loss_changes":[7.958648E-1,6.175715E-1,4.3414646E-1,6.20786E-1,9.990648E-1,0E0,2.462238E-1,0E0,0E0,0E0,0E0,0E0,0E0],"parents":[2147483647,0,0,1,1,2,2,3,3,4,4,6,6],"right_children":[2,4,6,8,10,-1,12,-1,-1,-1,-1,-1,-1],"split_conditions":[1.15E1,2.96E1,2.5E0,2.45E0,6.15E1,4.278469E-2,3.45E0,-3.2758903E-2,1.1591812E-1,-9.134986E-2,1.0154912E-1,-1.2224E-1,-3.2971352E-3],"split_indices":[3,1,6,7,5,0,7,0,0,0,0,0,0],"split_type":[0,0,0,0,0,0,0,0,0,0,0,0,0],"sum_hessian":[2.9934204E1,1.9928299E1,1.0005905E1,1.1337546E1,8.590753E0,2.0479746E0,7.95793E0,2.9501615E0,8.387385E0,5.8087983E0,2.7819545E0,5.854253E0,2.1036775E0],"tree_param":{"num_deleted":"0","num_feature":"8","num_nodes":"13","size_leaf_vector":"0"}},{"base_weights":[-9.0310106E-4,3.7427893E-1,-5.66501E-2,3.1499112E-1,-1.1568933E-1,-3.0395275E-1,1.7029438E-2],"categories":[],"categories_nodes":[],"categories_segments":[],"categories_sizes":[],"default_left":[true,false,true,false,true,false,false],"id":34,"left_children":[1,-1,3,-1,5,-1,-1],"loss_changes":[6.252693E-1,0E0,6.072222E-1,0E0,5.8433306E-1,0E0,0E0],"parents":[2147483647,0,0,2,2,4,4],"right_children":[2,-1,4,-1,6,-1,-1],"split_conditions":[5E-1,1.12283684E-1,1.95E0,9.449734E-2,2.02E1,-9.118583E-2,5.1088315E-3],"split_indices":[0,0,7,0,1,0,0],"split_type":[0,0,0,0,0,0,0],"sum_hessian":[2.788159E1,2.8677182E0,2.5013872E1,2.8346953E0,2.2179176E1,8.637112E0,1.3542066E1],"tree_param":{"num_deleted":"0","num_feature":"8","num_nodes":"7","size_leaf_vector":"0"}},{"base_weights":[9.031663E-4,-3.7427896E-1,5.6650173E-2,-3.1499118E-1,1.1568943E-1,3.0395284E-1,-1.7029444E-2],"categories":[],"categories_nodes":[],"categories_segments":[],"categories_sizes":[],"default_left":[true,false,true,false,true,false,false],"id":35,"left_children":[1,-1,3,-1,5,-1,-1],"loss_changes":[6.252698E-1,0E0,6.072228E-1,0E0,5.843338E-1,0E0,0E0],"parents":[2147483647,0,0,2,2,4,4],"right_children":[2,-1,4,-1,6,-1,-1],"split_conditions":[5E-1,-1.1228369E-1,1.95E0,-9.449736E-2,2.02E1,9.118585E-2,-5.1088333E-3],"split_indices":[0,0,7,0,1,0,0],"split_type":[0,0,0,0,0,0,0],"sum_hessian":[2.78816E1,2.8677192E0,2.5013882E1,2.8346968E0,2.2179184E1,8.637118E0,1.3542066E1],"tree_param":{"num_deleted":"0","num_feature":"8","num_nodes":"7","size_leaf_vector":"0"}},{"base_weights":[4.4882926E-3,-9.299359E-2,1.8617679E-1,2.9974294E-1,-1.4449027E-1,-1.09699205E-1,2.7051285E-1,-2.894718E-1,2.5358032E-2,2.0980727E-2,4.044304E-1],"categories":[],"categories_nodes":[],"categories_segments":[],"categories_sizes":[],"default_left":[true,true,true,false,true,false,true,false,false,false,false],"id":36,"left_children":[1,3,5,-1,7,-1,9,-1,-1,-1,-1],"loss_changes":[5.0170755E-1,4.1678417E-1,2.7628776E-1,0E0,4.2597276E-1,0E0,2.581604E-1,0E0,0E0,0E0,0E0],"parents":[2147483647,0,0,1,1,2,2,4,4,6,6],"right_children":[2,4,6,-1,8,-1,10,-1,-1,-1,-1],"split_conditions":[1.15E1,5E-1,2.5E0,8.992288E-2,3.075E1,-3.2909762E-2,8.5E0,-8.6841546E-2,7.60741E-3,6.2942184E-3,1.2132912E-1],"split_indices":[3,0,6,0,1,0,2,0,0,0,0],"split_type":[0,0,0,0,0,0,0,0,0,0,0],"sum_hessian":[2.6349392E1,1.746631E1,8.883082E0,1.4659207E0,1.600039E1,1.9036772E0,6.9794054E0,8.252126E0,7.748264E0,2.8414762E0,4.137929E0],"tree_param":{"num_deleted":"0","num_feature":"8","num_nodes":"11","size_leaf_vector":"0"}},{"base_weights":[-4.488316E-3,9.299355E-2,-1.8617673E-1,-2.9974303E-1,1.4449024E-1,1.0969916E-1,-2.7051273E-1,2.8947178E-1,-2.5358036E-2,-2.0980714E-2,-4.0443027E-1],"categories":[],"categories_nodes":[],"categories_segments":[],"categories_sizes":[],"default_left":[true,true,true,false,true,false,true,false,false,false,false],"id":37,"left_children":[1,3,5,-1,7,-1,9,-1,-1,-1,-1],"loss_changes":[5.017074E-1,4.1678444E-1,2.7628756E-1,0E0,4.259727E-1,0E0,2.5816035E-1,0E0,0E0,0E0,0E0],"parents":[2147483647,0,0,1,1,2,2,4,4,6,6],"right_children":[2,4,6,-1,8,-1,10,-1,-1,-1,-1],"split_conditions":[1.15E1,5E-1,2.5E0,-8.992291E-2,3.075E1,3.290975E-2,8.5E0,8.684154E-2,-7.607411E-3,-6.2942146E-3,-1.21329084E-1],"split_indices":[3,0,6,0,1,0,2,0,0,0,0],"split_type":[0,0,0,0,0,0,0,0,0,0,0],"sum_hessian":[2.6349398E1,1.7466312E1,8.883085E0,1.4659215E0,1.6000391E1,1.9036775E0,6.9794083E0,8.252127E0,7.7482643E0,2.8414774E0,4.137931E0],"tree_param":{"num_deleted":"0","num_feature":"8","num_nodes":"11","size_leaf_vector":"0"}},{"base_weights":[7.474444E-3,1.7971124E-1,-1.03018895E-1,-1.4697413E-1,4.4654146E-1,1.4540552E-1,-2.8470123E-1,-4.083519E-1,3.331625E-1,-2.310234E-1,3.49471E-1,-3.9343914E-1,1.911272E-1],"categories":[],"categories_nodes":[],"categories_segments":[],"categories_sizes":[],"default_left":[true,true,true,true,false,true,true,false,false,false,false,false,false],"id":38,"left_children":[1,3,5,7,-1,9,11,-1,-1,-1,-1,-1,-1],"loss_changes":[5.176379E-1,9.908526E-1,7.912056E-1,8.2931715E-1,0E0,6.706371E-1,5.891586E-1,0E0,0E0,0E0,0E0,0E0,0E0],"parents":[2147483647,0,0,1,1,2,2,3,3,5,5,6,6],"right_children":[2,4,6,8,-1,10,12,-1,-1,-1,-1,-1,-1],"split_conditions":[2.95E0,4.5E0,1.15E1,3.0099998E1,1.3396244E-1,3.085E1,9.35E1,-1.22505575E-1,9.994875E-2,-6.930702E-2,1.0484131E-1,-1.1803175E-1,5.733816E-2],"split_indices":[7,6,4,1,0,1,5,0,0,0,0,0,0],"split_type":[0,0,0,0,0,0,0,0,0,0,0,0,0],"sum_hessian":[2.522688E1,9.614059E0,1.561282E1,4.524191E0,5.0898685E0,6.6793895E0,8.933431E0,3.0262587E0,1.4979321E0,2.3016155E0,4.377774E0,7.412622E0,1.5208085E0],"tree_param":{"num_deleted":"0","num_feature":"8","num_nodes":"13","size_leaf_vector":"0"}},{"base_weights":[-7.474544E-3,-1.797113E-1,1.03018835E-1,1.4697415E-1,-4.4654146E-1,-1.4540593E-1,2.8470132E-1,4.0835187E-1,-3.3316246E-1,2.3102304E-1,-3.49471E-1,3.9343926E-1,-1.9112714E-1],"categories":[],"categories_nodes":[],"categories_segments":[],"categories_sizes":[],"default_left":[true,true,true,true,false,true,true,false,false,false,false,false,false],"id":39,"left_children":[1,3,5,7,-1,9,11,-1,-1,-1,-1,-1,-1],"loss_changes":[5.1763785E-1,9.9085283E-1,7.912071E-1,8.293169E-1,0E0,6.7063546E-1,5.891586E-1,0E0,0E0,0E0,0E0,0E0,0E0],"parents":[2147483647,0,0,1,1,2,2,3,3,5,5,6,6],"right_children":[2,4,6,8,-1,10,12,-1,-1,-1,-1,-1,-1],"split_conditions":[2.95E0,4.5E0,1.15E1,3.0099998E1,-1.3396244E-1,3.085E1,9.35E1,1.2250557E-1,-9.994874E-2,6.930692E-2,-1.0484131E-1,1.18031785E-1,-5.7338145E-2],"split_indices":[7,6,4,1,0,1,5,0,0,0,0,0,0],"split_type":[0,0,0,0,0,0,0,0,0,0,0,0,0],"sum_hessian":[2.5226875E1,9.614061E0,1.5612814E1,4.5241904E0,5.0898705E0,6.6793833E0,8.93343E0,3.0262587E0,1.4979317E0,2.3016098E0,4.377774E0,7.4126215E0,1.5208087E0],"tree_param":{"num_deleted":"0","num_feature":"8","num_nodes":"13","size_leaf_vector":"0"}},{"base_weights":[1.0527506E-2,1.3554557E-1,-1.1613908E-1,-1.7036838E-2,3.7103707E-1,1.4507908E-1,-3.2100278E-1,-1.373018E-1,3.2408604E-1,6.0614236E-2,4.4098568E-1,-2.0017664E-1,3.5733008E-1,-3.881305E-1,4.1455835E-2],"categories":[],"categories_nodes":[],"categories_segments":[],"categories_sizes":[],"default_left":[true,true,true,true,true,true,true,false,false,false,false,false,false,false,false],"id":40,"left_children":[1,3,5,7,9,11,13,-1,-1,-1,-1,-1,-1,-1,-1],"loss_changes":[3.8669446E-1,4.46514E-1,6.9807506E-1,3.887035E-1,7.881224E-2,5.1414067E-1,1.8968004E-1,0E0,0E0,0E0,0E0,0E0,0E0,0E0,0E0],"parents":[2147483647,0,0,1,1,2,2,3,3,4,4,5,5,6,6],"right_children":[2,4,6,8,10,12,14,-1,-1,-1,-1,-1,-1,-1,-1],"split_conditions":[3.25E0,2.25E1,9.5E0,2.925E1,6.5E0,3.705E1,8.85E1,-4.1190542E-2,9.7225815E-2,1.818427E-2,1.3229571E-1,-6.0052995E-2,1.0719903E-1,-1.1643915E-1,1.2436751E-2],"split_indices":[7,4,4,1,3,1,5,0,0,0,0,0,0,0,0],"split_type":[0,0,0,0,0,0,0,0,0,0,0,0,0,0,0],"sum_hessian":[2.24252E1,1.1250763E1,1.1174437E1,7.390123E0,3.8606405E0,5.0399327E0,6.134504E0,5.905576E0,1.4845467E0,1.0532055E0,2.807435E0,1.9404342E0,3.0994983E0,5.116159E0,1.0183449E0],"tree_param":{"num_deleted":"0","num_feature":"8","num_nodes":"15","size_leaf_vector":"0"}},{"base_weights":[-1.0527517E-2,-1.3554552E-1,1.1613899E-1,1.7036933E-2,-3.7103707E-1,-1.4507972E-1,3.210028E-1,1.3730188E-1,-3.24086E-1,-6.061422E-2,-4.4098568E-1,2.0017602E-1,-3.5733008E-1,3.8813046E-1,-4.1455865E-2],"categories":[],"categories_nodes":[],"categories_segments":[],"categories_sizes":[],"default_left":[true,true,true,true,true,true,true,false,false,false,false,false,false,false,false],"id":41,"left_children":[1,3,5,7,9,11,13,-1,-1,-1,-1,-1,-1,-1,-1],"loss_changes":[3.86694E-1,4.4651413E-1,6.9807696E-1,3.8870344E-1,7.881224E-2,5.141387E-1,1.8967998E-1,0E0,0E0,0E0,0E0,0E0,0E0,0E0,0E0],"parents":[2147483647,0,0,1,1,2,2,3,3,4,4,5,5,6,6],"right_children":[2,4,6,8,10,12,14,-1,-1,-1,-1,-1,-1,-1,-1],"split_conditions":[3.25E0,2.25E1,9.5E0,2.925E1,6.5E0,3.705E1,8.85E1,4.1190565E-2,-9.722581E-2,-1.8184267E-2,-1.3229571E-1,6.005281E-2,-1.0719903E-1,1.1643914E-1,-1.243676E-2],"split_indices":[7,4,4,1,3,1,5,0,0,0,0,0,0,0,0],"split_type":[0,0,0,0,0,0,0,0,0,0,0,0,0,0,0],"sum_hessian":[2.2425198E1,1.1250761E1,1.1174436E1,7.390121E0,3.8606403E0,5.0399265E0,6.134509E0,5.9055753E0,1.484546E0,1.0532055E0,2.8074348E0,1.9404284E0,3.099498E0,5.116164E0,1.0183448E0],"tree_param":{"num_deleted":"0","num_feature":"8","num_nodes":"15","size_leaf_vector":"0"}},{"base_weights":[1.5802067E-2,3.497536E-1,-4.074649E-2,9.468217E-2,-1.8298611E-1,-1.7264418E-1,2.4324283E-1,7.862782E-2,-3.8943475E-1],"categories":[],"categories_nodes":[],"categories_segments":[],"categories_sizes":[],"default_left":[true,false,true,true,true,false,false,false,false],"id":42,"left_children":[1,-1,3,5,7,-1,-1,-1,-1],"loss_changes":[4.253527E-1,0E0,3.9320135E-1,4.651323E-1,5.6304586E-1,0E0,0E0,0E0,0E0],"parents":[2147483647,0,0,2,2,3,3,4,4],"right_children":[2,-1,4,6,8,-1,-1,-1,-1],"split_conditions":[5E-1,1.0492608E-1,3.25E0,4.5E0,9.5E0,-5.179326E-2,7.297285E-2,2.3588346E-2,-1.1683043E-1],"split_indices":[0,0,7,6,4,0,0,0,0],"split_type":[0,0,0,0,0,0,0,0,0],"sum_hessian":[2.0769281E1,2.2567675E0,1.8512514E1,9.654579E0,8.857935E0,3.390842E0,6.263737E0,4.1800594E0,4.677875E0],"tree_param":{"num_deleted":"0","num_feature":"8","num_nodes":"9","size_leaf_vector":"0"}},{"base_weights":[-1.580242E-2,-3.4975377E-1,4.0746223E-2,-9.468218E-2,1.8298575E-1,1.7264417E-1,-2.4324284E-1,-7.862777E-2,3.8943455E-1],"categories":[],"categories_nodes":[],"categories_segments":[],"categories_sizes":[],"default_left":[true,false,true,true,true,false,false,false,false],"id":43,"left_children":[1,-1,3,5,7,-1,-1,-1,-1],"loss_changes":[4.2535287E-1,0E0,3.932001E-1,4.6513236E-1,5.630448E-1,0E0,0E0,0E0,0E0],"parents":[2147483647,0,0,2,2,3,3,4,4],"right_children":[2,-1,4,6,8,-1,-1,-1,-1],"split_conditions":[5E-1,-1.0492613E-1,3.25E0,4.5E0,9.5E0,5.179325E-2,-7.297286E-2,-2.3588333E-2,1.1683037E-1],"split_indices":[0,0,7,6,4,0,0,0,0],"split_type":[0,0,0,0,0,0,0,0,0],"sum_hessian":[2.0769274E1,2.2567713E0,1.8512503E1,9.654579E0,8.8579235E0,3.3908424E0,6.2637367E0,4.18006E0,4.6778636E0],"tree_param":{"num_deleted":"0","num_feature":"8","num_nodes":"9","size_leaf_vector":"0"}},{"base_weights":[1.3244131E-2,3.2618672E-1,-3.5633493E-2,1.3479587E-1,-1.3549736E-1,-1.430937E-1,3.9576653E-1,-4.1647798E-1,1.0066956E-2],"categories":[],"categories_nodes":[],"categories_segments":[],"categories_sizes":[],"default_left":[true,false,true,true,true,false,false,false,false],"id":44,"left_children":[1,-1,3,5,7,-1,-1,-1,-1],"loss_changes":[3.215979E-1,0E0,3.3192384E-1,5.867766E-1,4.9986607E-1,0E0,0E0,0E0,0E0],"parents":[2147483647,0,0,2,2,3,3,4,4],"right_children":[2,-1,4,6,8,-1,-1,-1,-1],"split_conditions":[5E-1,9.785602E-2,2.95E0,4.5E0,2.02E1,-4.2928115E-2,1.18729964E-1,-1.249434E-1,3.020087E-3],"split_indices":[0,0,7,6,1,0,0,0,0],"split_type":[0,0,0,0,0,0,0,0,0],"sum_hessian":[1.9265232E1,1.8360769E0,1.7429155E1,6.3102236E0,1.1118932E1,3.2748013E0,3.0354226E0,3.159353E0,7.9595785E0],"tree_param":{"num_deleted":"0","num_feature":"8","num_nodes":"9","size_leaf_vector":"0"}},{"base_weights":[-1.3243875E-2,-3.2618663E-1,3.563372E-2,-1.3479589E-1,1.3549763E-1,1.4309372E-1,-3.9576653E-1,4.1647816E-1,-1.006699E-2],"categories":[],"categories_nodes":[],"categories_segments":[],"categories_sizes":[],"default_left":[true,false,true,true,true,false,false,false,false],"id":45,"left_children":[1,-1,3,5,7,-1,-1,-1,-1],"loss_changes":[3.2159814E-1,0E0,3.3192462E-1,5.867767E-1,4.9986738E-1,0E0,0E0,0E0,0E0],"parents":[2147483647,0,0,2,2,3,3,4,4],"right_children":[2,-1,4,6,8,-1,-1,-1,-1],"split_conditions":[5E-1,-9.785599E-2,2.95E0,4.5E0,2.02E1,4.292812E-2,-1.18729964E-1,1.2494345E-1,-3.020097E-3],"split_indices":[0,0,7,6,1,0,0,0,0],"split_type":[0,0,0,0,0,0,0,0,0],"sum_hessian":[1.926524E1,1.8360757E0,1.7429165E1,6.3102236E0,1.1118941E1,3.2748008E0,3.0354226E0,3.1593628E0,7.959578E0],"tree_param":{"num_deleted":"0","num_feature":"8","num_nodes":"9","size_leaf_vector":"0"}},{"base_weights":[1.346946E-2,5.566347E-2,-3.6391112E-1,2.451152E-1,-1.1697751E-2,-8.506107E-4,3.5824442E-1,-2.2872053E-1,9.076764E-2],"categories":[],"categories_nodes":[],"categories_segments":[],"categories_sizes":[],"default_left":[true,true,false,true,true,false,false,false,false],"id":46,"left_children":[1,3,-1,5,7,-1,-1,-1,-1],"loss_changes":[3.1805173E-1,2.2860342E-1,0E0,1.3067478E-1,3.3215764E-1,0E0,0E0,0E0,0E0],"parents":[2147483647,0,0,1,1,3,3,4,4],"right_children":[2,4,-1,6,8,-1,-1,-1,-1],"split_conditions":[1.95E1,2.45E0,-1.0917334E-1,1.5E0,1.9150002E1,-2.5518323E-4,1.0747333E-1,-6.861616E-2,2.7230293E-2],"split_indices":[2,7,0,6,1,0,0,0,0],"split_type":[0,0,0,0,0,0,0,0,0],"sum_hessian":[1.770197E1,1.668856E1,1.0134072E0,3.6852028E0,1.3003358E1,1.4736562E0,2.2115467E0,3.7752228E0,9.228135E0],"tree_param":{"num_deleted":"0","num_feature":"8","num_nodes":"9","size_leaf_vector":"0"}},{"base_weights":[-1.3469496E-2,-5.566352E-2,3.6391115E-1,-2.4511519E-1,1.1697708E-2,8.5071876E-4,-3.5824442E-1,2.2872038E-1,-9.0767555E-2],"categories":[],"categories_nodes":[],"categories_segments":[],"categories_sizes":[],"default_left":[true,true,false,true,true,false,false,false,false],"id":47,"left_children":[1,3,-1,5,7,-1,-1,-1,-1],"loss_changes":[3.1805182E-1,2.286033E-1,0E0,1.306749E-1,3.3215696E-1,0E0,0E0,0E0,0E0],"parents":[2147483647,0,0,1,1,3,3,4,4],"right_children":[2,4,-1,6,8,-1,-1,-1,-1],"split_conditions":[1.95E1,2.45E0,1.0917335E-1,1.5E0,1.9150002E1,2.5521565E-4,-1.0747333E-1,6.8616115E-2,-2.7230268E-2],"split_indices":[2,7,0,6,1,0,0,0,0],"split_type":[0,0,0,0,0,0,0,0,0],"sum_hessian":[1.7701963E1,1.6688557E1,1.0134071E0,3.6852028E0,1.3003354E1,1.4736559E0,2.211547E0,3.7752192E0,9.228135E0],"tree_param":{"num_deleted":"0","num_feature":"8","num_nodes":"9","size_leaf_vector":"0"}},{"base_weights":[8.060924E-3,3.0642E-1,-3.863094E-2,-2.2591636E-1,5.227697E-2,5.2989636E-2,-3.335471E-1,-1.2606111E-1,2.2210383E-1],"categories":[],"categories_nodes":[],"categories_segments":[],"categories_sizes":[],"default_left":[true,false,true,true,true,false,false,false,false],"id":48,"left_children":[1,-1,3,5,7,-1,-1,-1,-1],"loss_changes":[2.6332512E-1,0E0,2.9269508E-1,1.8515033E-1,3.8897407E-1,0E0,0E0,0E0,0E0],"parents":[2147483647,0,0,2,2,3,3,4,4],"right_children":[2,-1,4,6,8,-1,-1,-1,-1],"split_conditions":[5E-1,9.1926E-2,5.5E0,3.25E0,3.115E1,1.5896892E-2,-1.0006413E-1,-3.7818335E-2,6.663115E-2],"split_indices":[0,0,3,7,1,0,0,0,0],"split_type":[0,0,0,0,0,0,0,0,0],"sum_hessian":[1.7052467E1,1.5547947E0,1.5497672E1,4.579019E0,1.09186535E1,1.4163835E0,3.1626353E0,5.4515724E0,5.467081E0],"tree_param":{"num_deleted":"0","num_feature":"8","num_nodes":"9","size_leaf_vector":"0"}},{"base_weights":[-8.061175E-3,-3.0642006E-1,3.8630717E-2,2.2591579E-1,-5.2276827E-2,-5.2989732E-2,3.3354667E-1,1.260613E-1,-2.2210383E-1],"categories":[],"categories_nodes":[],"categories_segments":[],"categories_sizes":[],"default_left":[true,false,true,true,true,false,false,false,false],"id":49,"left_children":[1,-1,3,5,7,-1,-1,-1,-1],"loss_changes":[2.6332495E-1,0E0,2.9269323E-1,1.8514997E-1,3.889746E-1,0E0,0E0,0E0,0E0],"parents":[2147483647,0,0,2,2,3,3,4,4],"right_children":[2,-1,4,6,8,-1,-1,-1,-1],"split_conditions":[5E-1,-9.192602E-2,5.5E0,3.25E0,3.115E1,-1.589692E-2,1.00064E-1,3.7818395E-2,-6.663115E-2],"split_indices":[0,0,3,7,1,0,0,0,0],"split_type":[0,0,0,0,0,0,0,0,0],"sum_hessian":[1.705246E1,1.5547956E0,1.5497664E1,4.5790086E0,1.0918656E1,1.4163837E0,3.1626248E0,5.451575E0,5.467081E0],"tree_param":{"num_deleted":"0","num_feature":"8","num_nodes":"9","size_leaf_vector":"0"}},{"base_weights":[8.125668E-3,8.690666E-2,-1.4524135E-1,-3.253052E-2,2.3799568E-1,1.4618364E-1,-2.4817728E-1,-2.7968502E-1,1.1988889E-1,4.0086395E-1,-3.4652878E-2,-6.093028E-2,-3.8442442E-1],"categories":[],"categories_nodes":[],"categories_segments":[],"categories_sizes":[],"default_left":[true,true,true,true,true,false,true,false,false,false,false,false,false],"id":50,"left_children":[1,3,5,7,9,-1,11,-1,-1,-1,-1,-1,-1],"loss_changes":[2.2226836E-1,2.2589031E-1,2.2414719E-1,3.2101053E-1,2.562312E-1,0E0,1.04102135E-1,0E0,0E0,0E0,0E0,0E0,0E0],"parents":[2147483647,0,0,1,1,2,2,3,3,4,4,6,6],"right_children":[2,4,6,8,10,-1,12,-1,-1,-1,-1,-1,-1],"split_conditions":[3.95E0,2.925E1,3.5E0,4.5E0,6.25E1,4.3855093E-2,4.1699997E1,-8.390551E-2,3.596667E-2,1.2025919E-1,-1.0395864E-2,-1.8279085E-2,-1.1532733E-1],"split_indices":[7,1,6,6,5,0,1,0,0,0,0,0,0],"split_type":[0,0,0,0,0,0,0,0,0,0,0,0,0],"sum_hessian":[1.6351341E1,1.1088688E1,5.2626534E0,6.6312895E0,4.4573984E0,1.2639904E0,3.9986632E0,2.2110343E0,4.420255E0,2.496087E0,1.9613113E0,2.2936547E0,1.7050084E0],"tree_param":{"num_deleted":"0","num_feature":"8","num_nodes":"13","size_leaf_vector":"0"}},{"base_weights":[-8.12539E-3,-8.6906575E-2,1.4524166E-1,3.2530583E-2,-2.3799561E-1,-1.4618345E-1,2.4817748E-1,2.7968502E-1,-1.1988881E-1,-4.0086392E-1,3.4652922E-2,6.0931068E-2,3.8442448E-1],"categories":[],"categories_nodes":[],"categories_segments":[],"categories_sizes":[],"default_left":[true,true,true,true,true,false,true,false,false,false,false,false,false],"id":51,"left_children":[1,3,5,7,9,-1,11,-1,-1,-1,-1,-1,-1],"loss_changes":[2.2226907E-1,2.2589026E-1,2.2414738E-1,3.2101038E-1,2.5623122E-1,0E0,1.0410154E-1,0E0,0E0,0E0,0E0,0E0,0E0],"parents":[2147483647,0,0,1,1,2,2,3,3,4,4,6,6],"right_children":[2,4,6,8,10,-1,12,-1,-1,-1,-1,-1,-1],"split_conditions":[3.95E0,2.925E1,3.5E0,4.5E0,6.25E1,-4.3855034E-2,4.1699997E1,8.390551E-2,-3.5966646E-2,-1.2025918E-1,1.0395877E-2,1.8279321E-2,1.1532735E-1],"split_indices":[7,1,6,6,5,0,1,0,0,0,0,0,0],"split_type":[0,0,0,0,0,0,0,0,0,0,0,0,0],"sum_hessian":[1.635135E1,1.1088686E1,5.2626643E0,6.631289E0,4.457397E0,1.2639918E0,3.9986727E0,2.2110343E0,4.4202547E0,2.496086E0,1.9613112E0,2.293664E0,1.7050086E0],"tree_param":{"num_deleted":"0","num_feature":"8","num_nodes":"13","size_leaf_vector":"0"}},{"base_weights":[4.750025E-3,2.872645E-1,-3.922011E-2,1.18758164E-1,-1.2017049E-1,-1.1527263E-1,3.494754E-1,-3.6657244E-1,-1.31543875E-2],"categories":[],"categories_nodes":[],"categories_segments":[],"categories_sizes":[],"default_left":[true,false,true,true,true,false,false,false,false],"id":52,"left_children":[1,-1,3,5,7,-1,-1,-1,-1],"loss_changes":[2.1508308E-1,0E0,2.0708966E-1,3.432685E-1,2.7116278E-1,0E0,0E0,0E0,0E0],"parents":[2147483647,0,0,2,2,3,3,4,4],"right_children":[2,-1,4,6,8,-1,-1,-1,-1],"split_conditions":[5E-1,8.617935E-2,2.95E0,4.5E0,2.02E1,-3.4581788E-2,1.04842626E-1,-1.0997174E-1,-3.9463164E-3],"split_indices":[0,0,7,6,1,0,0,0,0],"split_type":[0,0,0,0,0,0,0,0,0],"sum_hessian":[1.5407444E1,1.3298422E0,1.4077602E1,4.6113324E0,9.4662695E0,2.5376298E0,2.0737026E0,2.131999E0,7.3342705E0],"tree_param":{"num_deleted":"0","num_feature":"8","num_nodes":"9","size_leaf_vector":"0"}},{"base_weights":[-4.750148E-3,-2.8726444E-1,3.921996E-2,-1.1875818E-1,1.2017032E-1,1.1527266E-1,-3.4947544E-1,3.6657226E-1,1.3154363E-2],"categories":[],"categories_nodes":[],"categories_segments":[],"categories_sizes":[],"default_left":[true,false,true,true,true,false,false,false,false],"id":53,"left_children":[1,-1,3,5,7,-1,-1,-1,-1],"loss_changes":[2.1508272E-1,0E0,2.070894E-1,3.4326863E-1,2.711623E-1,0E0,0E0,0E0,0E0],"parents":[2147483647,0,0,2,2,3,3,4,4],"right_children":[2,-1,4,6,8,-1,-1,-1,-1],"split_conditions":[5E-1,-8.617933E-2,2.95E0,4.5E0,2.02E1,3.45818E-2,-1.0484264E-1,1.0997168E-1,3.946309E-3],"split_indices":[0,0,7,6,1,0,0,0,0],"split_type":[0,0,0,0,0,0,0,0,0],"sum_hessian":[1.540744E1,1.3298414E0,1.4077599E1,4.611333E0,9.466266E0,2.53763E0,2.073703E0,2.131995E0,7.3342705E0],"tree_param":{"num_deleted":"0","num_feature":"8","num_nodes":"9","size_leaf_vector":"0"}},{"base_weights":[6.7809634E-3,-1.4292797E-1,7.572069E-2,4.9668767E-2,-2.628993E-1,-3.76714E-2,2.334241E-1,-8.6361565E-2,-3.1766054E-1,-1.4844571E-1,2.0172979E-1,4.0813687E-1,1.5288998E-2],"categories":[],"categories_nodes":[],"categories_segments":[],"categories_sizes":[],"default_left":[true,true,true,false,true,true,true,false,false,false,false,false,false],"id":54,"left_children":[1,3,5,-1,7,9,11,-1,-1,-1,-1,-1,-1],"loss_changes":[1.6993229E-1,1.333724E-1,2.0924032E-1,0E0,5.120054E-3,2.2570603E-1,1.7774013E-1,0E0,0E0,0E0,0E0,0E0,0E0],"parents":[2147483647,0,0,1,1,2,2,4,4,5,5,6,6],"right_children":[2,4,6,-1,8,10,12,-1,-1,-1,-1,-1,-1],"split_conditions":[5.5E0,1.15E1,3.74E1,1.490063E-2,3.6199997E1,2.55E1,9.5E0,-2.590847E-2,-9.529816E-2,-4.4533715E-2,6.051894E-2,1.2244107E-1,4.5867E-3],"split_indices":[3,4,1,0,1,4,4,0,0,0,0,0,0],"split_type":[0,0,0,0,0,0,0,0,0,0,0,0,0],"sum_hessian":[1.4416271E1,4.207049E0,1.0209223E1,1.8396882E0,2.3673606E0,6.381741E0,3.8274817E0,1.1706166E0,1.196744E0,4.6226873E0,1.7590537E0,1.6416185E0,2.1858633E0],"tree_param":{"num_deleted":"0","num_feature":"8","num_nodes":"13","size_leaf_vector":"0"}},{"base_weights":[-6.7810975E-3,1.4292766E-1,-7.572072E-2,-4.966784E-2,2.6289845E-1,3.7671402E-2,-2.3342408E-1,8.63599E-2,3.176604E-1,1.4844584E-1,-2.0172998E-1,-4.081369E-1,-1.5289038E-2],"categories":[],"categories_nodes":[],"categories_segments":[],"categories_sizes":[],"default_left":[true,true,true,false,true,true,true,false,false,false,false,false,false],"id":55,"left_children":[1,3,5,-1,7,9,11,-1,-1,-1,-1,-1,-1],"loss_changes":[1.6993181E-1,1.3337077E-1,2.0924027E-1,0E0,5.121097E-3,2.2570638E-1,1.777401E-1,0E0,0E0,0E0,0E0,0E0,0E0],"parents":[2147483647,0,0,1,1,2,2,4,4,5,5,6,6],"right_children":[2,4,6,-1,8,10,12,-1,-1,-1,-1,-1,-1],"split_conditions":[5.5E0,1.15E1,3.74E1,-1.4900352E-2,3.6199997E1,2.55E1,9.5E0,2.5907973E-2,9.529812E-2,4.4533756E-2,-6.0519E-2,-1.22441076E-1,-4.5867115E-3],"split_indices":[3,4,1,0,1,4,4,0,0,0,0,0,0],"split_type":[0,0,0,0,0,0,0,0,0,0,0,0,0],"sum_hessian":[1.4416268E1,4.207047E0,1.0209221E1,1.839692E0,2.367355E0,6.3817387E0,3.827483E0,1.1706104E0,1.1967446E0,4.622685E0,1.7590533E0,1.6416184E0,2.1858644E0],"tree_param":{"num_deleted":"0","num_feature":"8","num_nodes":"13","size_leaf_vector":"0"}},{"base_weights":[7.890374E-3,9.128008E-2,-1.4653884E-1,-2.3671389E-2,2.2708231E-1,1.116634E-1,-2.3852727E-1,-2.2361127E-1,1.0044841E-1,-2.6523713E-2,3.8123173E-1,-3.8760494E-2,-3.622423E-1],"categories":[],"categories_nodes":[],"categories_segments":[],"categories_sizes":[],"default_left":[true,true,true,true,true,false,true,false,false,false,false,false,false],"id":56,"left_children":[1,3,5,7,9,-1,11,-1,-1,-1,-1,-1,-1],"loss_changes":[2.0541705E-1,1.6616115E-1,1.599482E-1,1.8336393E-1,1.9838649E-1,0E0,9.6117705E-2,0E0,0E0,0E0,0E0,0E0,0E0],"parents":[2147483647,0,0,1,1,2,2,3,3,4,4,6,6],"right_children":[2,4,6,8,10,-1,12,-1,-1,-1,-1,-1,-1],"split_conditions":[3.95E0,2.925E1,6.5E0,4.5E0,4.5E0,3.349902E-2,4.1699997E1,-6.708338E-2,3.0134523E-2,-7.957114E-3,1.1436952E-1,-1.1628149E-2,-1.086727E-1],"split_indices":[7,1,4,6,3,0,1,0,0,0,0,0,0],"split_type":[0,0,0,0,0,0,0,0,0,0,0,0,0],"sum_hessian":[1.3912554E1,9.299739E0,4.612815E0,5.4836926E0,3.8160467E0,1.1555151E0,3.4572997E0,1.7933218E0,3.6903706E0,1.7556286E0,2.0604181E0,1.8245091E0,1.6327906E0],"tree_param":{"num_deleted":"0","num_feature":"8","num_nodes":"13","size_leaf_vector":"0"}},{"base_weights":[-7.890449E-3,-9.128013E-2,1.4653872E-1,2.367143E-2,-2.2708239E-1,-1.1166265E-1,2.3852701E-1,2.2361124E-1,-1.00448355E-1,2.6523676E-2,-3.8123178E-1,3.875993E-2,3.6224228E-1],"categories":[],"categories_nodes":[],"categories_segments":[],"categories_sizes":[],"default_left":[true,true,true,true,true,false,true,false,false,false,false,false,false],"id":57,"left_children":[1,3,5,7,9,-1,11,-1,-1,-1,-1,-1,-1],"loss_changes":[2.0541695E-1,1.6616128E-1,1.5994737E-1,1.8336378E-1,1.983865E-1,0E0,9.611818E-2,0E0,0E0,0E0,0E0,0E0,0E0],"parents":[2147483647,0,0,1,1,2,2,3,3,4,4,6,6],"right_children":[2,4,6,8,10,-1,12,-1,-1,-1,-1,-1,-1],"split_conditions":[3.95E0,2.925E1,6.5E0,4.5E0,4.5E0,-3.3498798E-2,4.1699997E1,6.708337E-2,-3.0134508E-2,7.957103E-3,-1.1436954E-1,1.1627979E-2,1.08672686E-1],"split_indices":[7,1,4,6,3,0,1,0,0,0,0,0,0],"split_type":[0,0,0,0,0,0,0,0,0,0,0,0,0],"sum_hessian":[1.3912554E1,9.299739E0,4.6128154E0,5.4836903E0,3.8160484E0,1.1555187E0,3.4572966E0,1.7933214E0,3.690369E0,1.755629E0,2.0604193E0,1.8245063E0,1.6327904E0],"tree_param":{"num_deleted":"0","num_feature":"8","num_nodes":"13","size_leaf_vector":"0"}},{"base_weights":[4.9275407E-3,2.714032E-1,-3.9896775E-2,1.272179E-1,-1.1583522E-1,-8.175163E-2,3.1617483E-1,-3.2839948E-1,-2.376909E-2],"categories":[],"categories_nodes":[],"categories_segments":[],"categories_sizes":[],"default_left":[true,false,true,true,true,false,false,false,false],"id":58,"left_children":[1,-1,3,5,7,-1,-1,-1,-1],"loss_changes":[1.8026131E-1,0E0,1.79893E-1,2.0522217E-1,1.7755252E-1,0E0,0E0,0E0,0E0],"parents":[2147483647,0,0,2,2,3,3,4,4],"right_children":[2,-1,4,6,8,-1,-1,-1,-1],"split_conditions":[5E-1,8.142096E-2,2.85E0,4.5E0,2.02E1,-2.452549E-2,9.4852455E-2,-9.851985E-2,-7.130727E-3],"split_indices":[0,0,7,6,1,0,0,0,0],"split_type":[0,0,0,0,0,0,0,0,0],"sum_hessian":[1.3184933E1,1.1706609E0,1.2014272E1,3.5427055E0,8.471566E0,1.9516773E0,1.5910282E0,1.7844937E0,6.6870728E0],"tree_param":{"num_deleted":"0","num_feature":"8","num_nodes":"9","size_leaf_vector":"0"}},{"base_weights":[-4.9275067E-3,-2.7140293E-1,3.989673E-2,-1.2721778E-1,1.15835115E-1,8.175168E-2,-3.1617478E-1,3.2839933E-1,2.37691E-2],"categories":[],"categories_nodes":[],"categories_segments":[],"categories_sizes":[],"default_left":[true,false,true,true,true,false,false,false,false],"id":59,"left_children":[1,-1,3,5,7,-1,-1,-1,-1],"loss_changes":[1.8026076E-1,0E0,1.7989264E-1,2.0522217E-1,1.775522E-1,0E0,0E0,0E0,0E0],"parents":[2147483647,0,0,2,2,3,3,4,4],"right_children":[2,-1,4,6,8,-1,-1,-1,-1],"split_conditions":[5E-1,-8.142088E-2,2.85E0,4.5E0,2.02E1,2.4525506E-2,-9.485244E-2,9.85198E-2,7.13073E-3],"split_indices":[0,0,7,6,1,0,0,0,0],"split_type":[0,0,0,0,0,0,0,0,0],"sum_hessian":[1.3184927E1,1.1706585E0,1.2014268E1,3.542705E0,8.471563E0,1.9516777E0,1.5910274E0,1.7844906E0,6.6870723E0],"tree_param":{"num_deleted":"0","num_feature":"8","num_nodes":"9","size_leaf_vector":"0"}},{"base_weights":[7.4941623E-3,8.0094285E-2,-1.2014834E-1,-3.3587955E-2,2.0781796E-1,1.10693485E-1,-2.0694514E-1,-1.3301007E-1,1.6629611E-1,3.533697E-1,-2.378767E-2,-2.999702E-2,-3.2699344E-1],"categories":[],"categories_nodes":[],"categories_segments":[],"categories_sizes":[],"default_left":[true,true,true,true,true,false,true,false,false,false,false,false,false],"id":60,"left_children":[1,3,5,7,9,-1,11,-1,-1,-1,-1,-1,-1],"loss_changes":[1.3421059E-1,1.4012781E-1,1.285871E-1,1.3564406E-1,1.5866914E-1,0E0,7.901858E-2,0E0,0E0,0E0,0E0,0E0,0E0],"parents":[2147483647,0,0,1,1,2,2,3,3,4,4,6,6],"right_children":[2,4,6,8,10,-1,12,-1,-1,-1,-1,-1,-1],"split_conditions":[3.85E0,2.925E1,6.5E0,2.25E1,6.85E1,3.3208046E-2,4.1699997E1,-3.9903022E-2,4.9888834E-2,1.0601092E-1,-7.136301E-3,-8.9991065E-3,-9.809803E-2],"split_indices":[7,1,4,4,5,0,1,0,0,0,0,0,0],"split_type":[0,0,0,0,0,0,0,0,0,0,0,0,0],"sum_hessian":[1.2444402E1,8.170003E0,4.274399E0,4.712554E0,3.4574485E0,1.0927746E0,3.1816242E0,3.37059E0,1.3419641E0,1.8003106E0,1.6571379E0,1.7912469E0,1.3903773E0],"tree_param":{"num_deleted":"0","num_feature":"8","num_nodes":"13","size_leaf_vector":"0"}},{"base_weights":[-7.493857E-3,-8.009416E-2,1.20148756E-1,3.3588063E-2,-2.0781785E-1,-1.10693716E-1,2.0694561E-1,1.3301025E-1,-1.6629608E-1,-3.5336965E-1,2.378777E-2,2.9998127E-2,3.2699338E-1],"categories":[],"categories_nodes":[],"categories_segments":[],"categories_sizes":[],"default_left":[true,true,true,true,true,false,true,false,false,false,false,false,false],"id":61,"left_children":[1,3,5,7,9,-1,11,-1,-1,-1,-1,-1,-1],"loss_changes":[1.3421106E-1,1.4012782E-1,1.2858765E-1,1.356442E-1,1.5866916E-1,0E0,7.9017624E-2,0E0,0E0,0E0,0E0,0E0,0E0],"parents":[2147483647,0,0,1,1,2,2,3,3,4,4,6,6],"right_children":[2,4,6,8,10,-1,12,-1,-1,-1,-1,-1,-1],"split_conditions":[3.85E0,2.925E1,6.5E0,2.25E1,6.85E1,-3.3208117E-2,4.1699997E1,3.990308E-2,-4.9888827E-2,-1.060109E-1,7.1363314E-3,8.999439E-3,9.809802E-2],"split_indices":[7,1,4,4,5,0,1,0,0,0,0,0,0],"split_type":[0,0,0,0,0,0,0,0,0,0,0,0,0],"sum_hessian":[1.2444405E1,8.170001E0,4.2744036E0,4.7125535E0,3.4574473E0,1.0927739E0,3.18163E0,3.3705893E0,1.3419645E0,1.8003098E0,1.6571375E0,1.7912524E0,1.3903775E0],"tree_param":{"num_deleted":"0","num_feature":"8","num_nodes":"13","size_leaf_vector":"0"}},{"base_weights":[8.747822E-3,2.5288364E-1,-3.3430263E-2,-1.568577E-1,6.0576074E-2,1.1171554E-1,-2.4414864E-1,-1.1357231E-1,1.8091774E-1],"categories":[],"categories_nodes":[],"categories_segments":[],"categories_sizes":[],"default_left":[true,false,true,true,true,false,false,false,false],"id":62,"left_children":[1,-1,3,5,7,-1,-1,-1,-1],"loss_changes":[1.408839E-1,0E0,1.469906E-1,1.539114E-1,1.766333E-1,0E0,0E0,0E0,0E0],"parents":[2147483647,0,0,2,2,3,3,4,4],"right_children":[2,-1,4,6,8,-1,-1,-1,-1],"split_conditions":[5E-1,7.58651E-2,7.5E0,6.5E0,8.5E0,3.3514664E-2,-7.3244594E-2,-3.4071695E-2,5.4275323E-2],"split_indices":[0,0,3,4,2,0,0,0,0],"split_type":[0,0,0,0,0,0,0,0,0],"sum_hessian":[1.1860793E1,1.0113374E0,1.0849455E1,4.4016447E0,6.4478106E0,1.0110574E0,3.3905873E0,2.6578476E0,3.7899632E0],"tree_param":{"num_deleted":"0","num_feature":"8","num_nodes":"9","size_leaf_vector":"0"}},{"base_weights":[-8.747291E-3,-2.5288355E-1,3.3430755E-2,1.5685844E-1,-6.057606E-2,-1.117155E-1,2.4414931E-1,1.1357235E-1,-1.8091778E-1],"categories":[],"categories_nodes":[],"categories_segments":[],"categories_sizes":[],"default_left":[true,false,true,true,true,false,false,false,false],"id":63,"left_children":[1,-1,3,5,7,-1,-1,-1,-1],"loss_changes":[1.4088427E-1,0E0,1.4699177E-1,1.5391202E-1,1.7663342E-1,0E0,0E0,0E0,0E0],"parents":[2147483647,0,0,2,2,3,3,4,4],"right_children":[2,-1,4,6,8,-1,-1,-1,-1],"split_conditions":[5E-1,-7.586507E-2,7.5E0,6.5E0,8.5E0,-3.3514652E-2,7.3244795E-2,3.4071706E-2,-5.4275338E-2],"split_indices":[0,0,3,4,2,0,0,0,0],"split_type":[0,0,0,0,0,0,0,0,0],"sum_hessian":[1.1860806E1,1.0113366E0,1.084947E1,4.4016585E0,6.447811E0,1.0110579E0,3.3906007E0,2.6578484E0,3.789963E0],"tree_param":{"num_deleted":"0","num_feature":"8","num_nodes":"9","size_leaf_vector":"0"}},{"base_weights":[1.0866004E-2,7.6910295E-2,-1.0881726E-1,-2.7247394E-2,1.9939938E-1,8.4948875E-2,-1.856123E-1,-2.0340051E-1,8.777811E-2,-1.5481323E-2,3.3576313E-1,-3.6309864E-2,-2.6762304E-1],"categories":[],"categories_nodes":[],"categories_segments":[],"categories_sizes":[],"default_left":[true,true,true,true,true,false,true,false,false,false,false,false,false],"id":64,"left_children":[1,3,5,7,9,-1,11,-1,-1,-1,-1,-1,-1],"loss_changes":[1.0702263E-1,1.1551803E-1,8.797053E-2,1.3016719E-1,1.2491299E-1,0E0,3.6676496E-2,0E0,0E0,0E0,0E0,0E0,0E0],"parents":[2147483647,0,0,1,1,2,2,3,3,4,4,6,6],"right_children":[2,4,6,8,10,-1,12,-1,-1,-1,-1,-1,-1],"split_conditions":[3.85E0,2.925E1,6.5E0,4.5E0,4.5E0,2.5484664E-2,1.25E1,-6.1020155E-2,2.6333433E-2,-4.644397E-3,1.00728944E-1,-1.0892959E-2,-8.028691E-2],"split_indices":[7,1,6,6,3,0,2,0,0,0,0,0,0],"split_type":[0,0,0,0,0,0,0,0,0,0,0,0,0],"sum_hessian":[1.1480835E1,7.628576E0,3.852259E0,4.5430117E0,3.085564E0,1.0632738E0,2.7889853E0,1.4911369E0,3.0518749E0,1.5420643E0,1.5434997E0,1.5003351E0,1.28865E0],"tree_param":{"num_deleted":"0","num_feature":"8","num_nodes":"13","size_leaf_vector":"0"}},{"base_weights":[-1.0866294E-2,-7.691036E-2,1.08816765E-1,2.7247444E-2,-1.9939953E-1,-8.494894E-2,1.8561177E-1,2.0340058E-1,-8.777807E-2,1.5481246E-2,-3.3576325E-1,3.6309034E-2,2.6762298E-1],"categories":[],"categories_nodes":[],"categories_segments":[],"categories_sizes":[],"default_left":[true,true,true,true,true,false,true,false,false,false,false,false,false],"id":65,"left_children":[1,3,5,7,9,-1,11,-1,-1,-1,-1,-1,-1],"loss_changes":[1.07022084E-1,1.1551827E-1,8.797024E-2,1.301672E-1,1.2491302E-1,0E0,3.6677048E-2,0E0,0E0,0E0,0E0,0E0,0E0],"parents":[2147483647,0,0,1,1,2,2,3,3,4,4,6,6],"right_children":[2,4,6,8,10,-1,12,-1,-1,-1,-1,-1,-1],"split_conditions":[3.85E0,2.925E1,6.5E0,4.5E0,4.5E0,-2.5484683E-2,1.25E1,6.1020177E-2,-2.6333421E-2,4.644374E-3,-1.0072898E-1,1.0892711E-2,8.02869E-2],"split_indices":[7,1,6,6,3,0,2,0,0,0,0,0,0],"split_type":[0,0,0,0,0,0,0,0,0,0,0,0,0],"sum_hessian":[1.1480832E1,7.6285777E0,3.8522549E0,4.5430117E0,3.085566E0,1.0632734E0,2.7889814E0,1.4911367E0,3.0518749E0,1.5420645E0,1.5435014E0,1.5003332E0,1.2886482E0],"tree_param":{"num_deleted":"0","num_feature":"8","num_nodes":"13","size_leaf_vector":"0"}},{"base_weights":[7.970013E-3,1.3886786E-1,-5.3984225E-2,-4.9970157E-2,2.977696E-1,8.4425665E-2,-1.6501397E-1,-1.2980065E-1,2.373297E-1,-2.67882E-1,1.354303E-1],"categories":[],"categories_nodes":[],"categories_segments":[],"categories_sizes":[],"default_left":[true,true,true,false,false,true,true,false,false,false,false],"id":66,"left_children":[1,3,5,-1,-1,7,9,-1,-1,-1,-1],"loss_changes":[1.04785755E-1,1.3892382E-1,1.5013121E-1,0E0,0E0,1.8169671E-1,1.9873014E-1,0E0,0E0,0E0,0E0],"parents":[2147483647,0,0,1,1,2,2,5,5,6,6],"right_children":[2,4,6,-1,-1,8,10,-1,-1,-1,-1],"split_conditions":[2.85E0,4.5E0,1.15E1,-1.4991048E-2,8.933088E-2,3.705E1,9.35E1,-3.8940195E-2,7.119892E-2,-8.03646E-2,4.0629093E-2],"split_indices":[7,6,4,0,0,1,5,0,0,0,0],"split_type":[0,0,0,0,0,0,0,0,0,0,0],"sum_hessian":[1.0996666E1,3.1338859E0,7.86278E0,1.7453038E0,1.3885821E0,3.60651E0,4.25627E0,1.5649844E0,2.0415256E0,3.2514117E0,1.0048584E0],"tree_param":{"num_deleted":"0","num_feature":"8","num_nodes":"11","size_leaf_vector":"0"}},{"base_weights":[-7.969843E-3,-1.388678E-1,5.3984396E-2,4.997016E-2,-2.9776955E-1,-8.442546E-2,1.650141E-1,1.2980084E-1,-2.373297E-1,2.6788208E-1,-1.3543022E-1],"categories":[],"categories_nodes":[],"categories_segments":[],"categories_sizes":[],"default_left":[true,true,true,false,false,true,true,false,false,false,false],"id":67,"left_children":[1,3,5,-1,-1,7,9,-1,-1,-1,-1],"loss_changes":[1.0478588E-1,1.3892381E-1,1.5013115E-1,0E0,0E0,1.8169701E-1,1.9873017E-1,0E0,0E0,0E0,0E0],"parents":[2147483647,0,0,1,1,2,2,5,5,6,6],"right_children":[2,4,6,-1,-1,8,10,-1,-1,-1,-1],"split_conditions":[2.85E0,4.5E0,1.15E1,1.4991049E-2,-8.933087E-2,3.705E1,9.35E1,3.8940255E-2,-7.119892E-2,8.036463E-2,-4.0629067E-2],"split_indices":[7,6,4,0,0,1,5,0,0,0,0],"split_type":[0,0,0,0,0,0,0,0,0,0,0],"sum_hessian":[1.0996671E1,3.133886E0,7.8627844E0,1.7453043E0,1.3885818E0,3.6065125E0,4.256272E0,1.564987E0,2.0415256E0,3.2514133E0,1.0048585E0],"tree_param":{"num_deleted":"0","num_feature":"8","num_nodes":"11","size_leaf_vector":"0"}},{"base_weights":[1.20319E-2,-1.2999767E-1,5.9057917E-2,-7.255434E-3,-1.8703261E-1,2.3222779E-1,-4.42876E-2,5.4079294E-2,2.9384828E-1,9.3100436E-2,-1.8331409E-1],"categories":[],"categories_nodes":[],"categories_segments":[],"categories_sizes":[],"default_left":[true,true,true,false,false,true,true,false,false,false,false],"id":68,"left_children":[1,3,5,-1,-1,7,9,-1,-1,-1,-1],"loss_changes":[8.36522E-2,2.0637676E-2,1.7552528E-1,0E0,0E0,2.3749024E-2,1.4355446E-1,0E0,0E0,0E0,0E0],"parents":[2147483647,0,0,1,1,2,2,5,5,6,6],"right_children":[2,4,6,-1,-1,8,10,-1,-1,-1,-1],"split_conditions":[1.25E1,2.5E0,1.15E1,-2.1766303E-3,-5.6109786E-2,3.125E1,3.25E0,1.6223788E-2,8.815449E-2,2.7930131E-2,-5.499423E-2],"split_indices":[5,6,4,0,0,1,7,0,0,0,0],"split_type":[0,0,0,0,0,0,0,0,0,0,0],"sum_hessian":[1.0375033E1,2.1418297E0,8.233203E0,1.0371144E0,1.1047152E0,2.6110027E0,5.6222005E0,1.153573E0,1.4574295E0,2.9939125E0,2.6282883E0],"tree_param":{"num_deleted":"0","num_feature":"8","num_nodes":"11","size_leaf_vector":"0"}},{"base_weights":[-1.2031367E-2,1.2999769E-1,-5.9057232E-2,7.2554215E-3,1.8703267E-1,-2.3222779E-1,4.4288386E-2,-5.407917E-2,-2.938483E-1,-9.310032E-2,1.8331496E-1],"categories":[],"categories_nodes":[],"categories_segments":[],"categories_sizes":[],"default_left":[true,true,true,false,false,true,true,false,false,false,false],"id":69,"left_children":[1,3,5,-1,-1,7,9,-1,-1,-1,-1],"loss_changes":[8.365166E-2,2.0637702E-2,1.7552641E-1,0E0,0E0,2.3749098E-2,1.435554E-1,0E0,0E0,0E0,0E0],"parents":[2147483647,0,0,1,1,2,2,5,5,6,6],"right_children":[2,4,6,-1,-1,8,10,-1,-1,-1,-1],"split_conditions":[1.25E1,2.5E0,1.15E1,2.1766266E-3,5.6109805E-2,3.125E1,3.25E0,-1.6223753E-2,-8.8154495E-2,-2.7930096E-2,5.499449E-2],"split_indices":[5,6,4,0,0,1,7,0,0,0,0],"split_type":[0,0,0,0,0,0,0,0,0,0,0],"sum_hessian":[1.0375042E1,2.14183E0,8.2332115E0,1.0371147E0,1.1047151E0,2.6110015E0,5.62221E0,1.153572E0,1.4574296E0,2.9939115E0,2.6282985E0],"tree_param":{"num_deleted":"0","num_feature":"8","num_nodes":"11","size_leaf_vector":"0"}},{"base_weights":[1.0591603E-2,2.5356278E-1,-3.9282814E-2,-1.4526992E-1,6.351202E-2,-2.2036567E-1,8.570668E-2,2.7641338E-1,-4.6040732E-2],"categories":[],"categories_nodes":[],"categories_segments":[],"categories_sizes":[],"default_left":[true,false,true,true,true,false,false,false,false],"id":70,"left_children":[1,-1,3,5,7,-1,-1,-1,-1],"loss_changes":[1.4378573E-1,0E0,1.1848622E-1,1.0980752E-1,1.4769529E-1,0E0,0E0,0E0,0E0],"parents":[2147483647,0,0,2,2,3,3,4,4],"right_children":[2,-1,4,6,8,-1,-1,-1,-1],"split_conditions":[5E-1,7.606883E-2,3.11E1,3.35E1,3.25E0,-6.61097E-2,2.5712006E-2,8.2924016E-2,-1.3812221E-2],"split_indices":[0,0,1,4,7,0,0,0,0],"split_type":[0,0,0,0,0,0,0,0,0],"sum_hessian":[1.0043454E1,1.0149479E0,9.028506E0,4.241788E0,4.7867184E0,3.2357206E0,1.0060673E0,1.1088012E0,3.6779168E0],"tree_param":{"num_deleted":"0","num_feature":"8","num_nodes":"9","size_leaf_vector":"0"}},{"base_weights":[-1.059114E-2,-2.5356266E-1,3.928322E-2,1.4527054E-1,-6.351203E-2,2.20366E-1,-8.5705474E-2,-2.764134E-1,4.6040747E-2],"categories":[],"categories_nodes":[],"categories_segments":[],"categories_sizes":[],"default_left":[true,false,true,true,true,false,false,false,false],"id":71,"left_children":[1,-1,3,5,7,-1,-1,-1,-1],"loss_changes":[1.4378597E-1,0E0,1.1848703E-1,1.09806865E-1,1.4769536E-1,0E0,0E0,0E0,0E0],"parents":[2147483647,0,0,2,2,3,3,4,4],"right_children":[2,-1,4,6,8,-1,-1,-1,-1],"split_conditions":[5E-1,-7.60688E-2,3.11E1,3.35E1,3.25E0,6.610981E-2,-2.5711643E-2,-8.292402E-2,1.3812224E-2],"split_indices":[0,0,1,4,7,0,0,0,0],"split_type":[0,0,0,0,0,0,0,0,0],"sum_hessian":[1.0043463E1,1.0149468E0,9.028516E0,4.2417965E0,4.786719E0,3.2357254E0,1.0060712E0,1.1088016E0,3.6779172E0],"tree_param":{"num_deleted":"0","num_feature":"8","num_nodes":"9","size_leaf_vector":"0"}},{"base_weights":[1.8263511E-2,6.712094E-2,-1.14762664E-1,1.799318E-3,2.6103145E-1,-1.8569607E-1,1.8149773E-2,1.1681745E-1,-1.0774848E-1],"categories":[],"categories_nodes":[],"categories_segments":[],"categories_sizes":[],"default_left":[true,true,true,true,false,false,false,false,false],"id":72,"left_children":[1,3,5,7,-1,-1,-1,-1,-1],"loss_changes":[7.620647E-2,1.0516678E-1,3.3542622E-2,1.0387714E-1,0E0,0E0,0E0,0E0,0E0],"parents":[2147483647,0,0,1,1,2,2,3,3],"right_children":[2,4,6,8,-1,-1,-1,-1,-1],"split_conditions":[1.65E1,4.75E1,6.5E0,9.5E0,7.830944E-2,-5.5708822E-2,5.444932E-3,3.5045236E-2,-3.2324545E-2],"split_indices":[2,4,3,4,0,0,0,0,0],"split_type":[0,0,0,0,0,0,0,0,0],"sum_hessian":[9.540106E0,7.3397985E0,2.2003074E0,6.245267E0,1.0945315E0,1.1757149E0,1.0245925E0,3.0141952E0,3.2310715E0],"tree_param":{"num_deleted":"0","num_feature":"8","num_nodes":"9","size_leaf_vector":"0"}},{"base_weights":[-1.8263694E-2,-6.712117E-2,1.14762664E-1,-1.7993939E-3,-2.61032E-1,1.8569598E-1,-1.8149704E-2,-1.168173E-1,1.07748225E-1],"categories":[],"categories_nodes":[],"categories_segments":[],"categories_sizes":[],"default_left":[true,true,true,true,false,false,false,false,false],"id":73,"left_children":[1,3,5,7,-1,-1,-1,-1,-1],"loss_changes":[7.620664E-2,1.05167165E-1,3.3542547E-2,1.0387675E-1,0E0,0E0,0E0,0E0,0E0],"parents":[2147483647,0,0,1,1,2,2,3,3],"right_children":[2,4,6,8,-1,-1,-1,-1,-1],"split_conditions":[1.65E1,4.75E1,6.5E0,9.5E0,-7.8309596E-2,5.5708796E-2,-5.4449113E-3,-3.504519E-2,3.232447E-2],"split_indices":[2,4,3,4,0,0,0,0,0],"split_type":[0,0,0,0,0,0,0,0,0],"sum_hessian":[9.540104E0,7.3397975E0,2.200307E0,6.245265E0,1.0945323E0,1.1757147E0,1.0245922E0,3.0141947E0,3.2310705E0],"tree_param":{"num_deleted":"0","num_feature":"8","num_nodes":"9","size_leaf_vector":"0"}},{"base_weights":[1.6259566E-2,1.2628777E-1,-3.935112E-2,-5.786678E-2,2.7910516E-1,-1.5284035E-1,3.2474514E-2,-4.1842733E-2,-1.8612583E-1,1.6972305E-1,-1.228291E-1],"categories":[],"categories_nodes":[],"categories_segments":[],"categories_sizes":[],"default_left":[true,true,true,false,false,true,true,false,false,false,false],"id":74,"left_children":[1,3,5,-1,-1,7,9,-1,-1,-1,-1],"loss_changes":[6.822666E-2,1.2051496E-1,6.7156985E-2,0E0,0E0,3.785126E-3,1.3802359E-1,0E0,0E0,0E0,0E0],"parents":[2147483647,0,0,1,1,2,2,5,5,6,6],"right_children":[2,4,6,-1,-1,8,10,-1,-1,-1,-1],"split_conditions":[2.85E0,4.5E0,7.5E0,-1.7360033E-2,8.373155E-2,1.55E1,1.35E1,-1.255282E-2,-5.583775E-2,5.0916918E-2,-3.684873E-2],"split_indices":[7,6,2,0,0,4,2,0,0,0,0],"split_type":[0,0,0,0,0,0,0,0,0,0,0],"sum_hessian":[9.338246E0,2.7084775E0,6.6297693E0,1.5100754E0,1.198402E0,2.1324391E0,4.49733E0,1.0126446E0,1.1197945E0,2.3381548E0,2.1591754E0],"tree_param":{"num_deleted":"0","num_feature":"8","num_nodes":"11","size_leaf_vector":"0"}},{"base_weights":[-1.625981E-2,-1.2628762E-1,3.9350744E-2,5.786691E-2,-2.7910507E-1,1.5283994E-1,-3.2474782E-2,4.1842423E-2,1.8612549E-1,-1.697235E-1,1.2282899E-1],"categories":[],"categories_nodes":[],"categories_segments":[],"categories_sizes":[],"default_left":[true,true,true,false,false,true,true,false,false,false,false],"id":75,"left_children":[1,3,5,-1,-1,7,9,-1,-1,-1,-1],"loss_changes":[6.822618E-2,1.20514974E-1,6.715685E-2,0E0,0E0,3.7852004E-3,1.3802381E-1,0E0,0E0,0E0,0E0],"parents":[2147483647,0,0,1,1,2,2,5,5,6,6],"right_children":[2,4,6,-1,-1,8,10,-1,-1,-1,-1],"split_conditions":[2.85E0,4.5E0,7.5E0,1.7360073E-2,-8.3731525E-2,1.55E1,1.35E1,1.2552728E-2,5.583765E-2,-5.091705E-2,3.6848698E-2],"split_indices":[7,6,2,0,0,4,2,0,0,0,0],"split_type":[0,0,0,0,0,0,0,0,0,0,0],"sum_hessian":[9.338239E0,2.7084758E0,6.6297626E0,1.5100747E0,1.1984011E0,2.132436E0,4.497327E0,1.0126433E0,1.1197927E0,2.3381517E0,2.159175E0],"tree_param":{"num_deleted":"0","num_feature":"8","num_nodes":"11","size_leaf_vector":"0"}},{"base_weights":[1.3577288E-2,-1.08498394E-1,5.5626154E-2,1.9738422E-1,-3.4611296E-2,4.52103E-2,2.4972908E-1,1.3105203E-1,-1.19975336E-1],"categories":[],"categories_nodes":[],"categories_segments":[],"categories_sizes":[],"default_left":[true,false,true,true,true,false,false,false,false],"id":76,"left_children":[1,-1,3,5,7,-1,-1,-1,-1],"loss_changes":[5.742081E-2,0E0,1.1053416E-1,1.5015528E-2,9.780745E-2,0E0,0E0,0E0,0E0],"parents":[2147483647,0,0,2,2,3,3,4,4],"right_children":[2,-1,4,6,8,-1,-1,-1,-1],"split_conditions":[1.25E1,-3.254952E-2,1.15E1,3.125E1,2.95E0,1.356309E-2,7.4918725E-2,3.931561E-2,-3.5992604E-2],"split_indices":[5,0,4,1,7,0,0,0,0],"split_type":[0,0,0,0,0,0,0,0,0],"sum_hessian":[9.010524E0,1.903632E0,7.106891E0,2.3024626E0,4.8044286E0,1.0662946E0,1.236168E0,1.4517838E0,3.352645E0],"tree_param":{"num_deleted":"0","num_feature":"8","num_nodes":"9","size_leaf_vector":"0"}},{"base_weights":[-1.3577191E-2,1.084982E-1,-5.562595E-2,-1.9738428E-1,3.46116E-2,-4.5210373E-2,-2.4972914E-1,-1.3105199E-1,1.1997566E-1],"categories":[],"categories_nodes":[],"categories_segments":[],"categories_sizes":[],"default_left":[true,false,true,true,true,false,false,false,false],"id":77,"left_children":[1,-1,3,5,7,-1,-1,-1,-1],"loss_changes":[5.7420533E-2,0E0,1.1053457E-1,1.5015498E-2,9.7807676E-2,0E0,0E0,0E0,0E0],"parents":[2147483647,0,0,2,2,3,3,4,4],"right_children":[2,-1,4,6,8,-1,-1,-1,-1],"split_conditions":[1.25E1,3.2549463E-2,1.15E1,3.125E1,2.95E0,-1.3563112E-2,-7.491875E-2,-3.9315596E-2,3.59927E-2],"split_indices":[5,0,4,1,7,0,0,0,0],"split_type":[0,0,0,0,0,0,0,0,0],"sum_hessian":[9.010526E0,1.903632E0,7.106894E0,2.302463E0,4.804431E0,1.066295E0,1.2361681E0,1.4517835E0,3.3526473E0],"tree_param":{"num_deleted":"0","num_feature":"8","num_nodes":"9","size_leaf_vector":"0"}},{"base_weights":[1.6132075E-2,6.795223E-2,-7.750593E-2,-2.7419059E-2,1.8341719E-1,-1.8219091E-1,4.2241722E-2,-1.446597E-1,6.1355576E-2,-6.5750214E-3,2.8532708E-1],"categories":[],"categories_nodes":[],"categories_segments":[],"categories_sizes":[],"default_left":[true,true,true,true,true,false,false,false,false,false,false],"id":78,"left_children":[1,3,5,7,9,-1,-1,-1,-1,-1,-1],"loss_changes":[5.2656144E-2,8.012971E-2,5.7167966E-2,5.680307E-2,6.412507E-2,0E0,0E0,0E0,0E0,0E0,0E0],"parents":[2147483647,0,0,1,1,2,2,3,3,4,4],"right_children":[2,4,6,8,10,-1,-1,-1,-1,-1,-1],"split_conditions":[3.95E0,2.925E1,4.55E0,4.5E0,4.5E0,-5.4657277E-2,1.2672517E-2,-4.339791E-2,1.8406674E-2,-1.9725065E-3,8.5598126E-2],"split_indices":[7,1,7,6,3,0,0,0,0,0,0],"split_type":[0,0,0,0,0,0,0,0,0,0,0],"sum_hessian":[8.766315E0,5.81986E0,2.946456E0,3.6048632E0,2.2149968E0,1.2938757E0,1.6525803E0,1.2821153E0,2.3227477E0,1.0999063E0,1.1150906E0],"tree_param":{"num_deleted":"0","num_feature":"8","num_nodes":"11","size_leaf_vector":"0"}},{"base_weights":[-1.6131956E-2,-6.7952275E-2,7.7506244E-2,2.741893E-2,-1.8341716E-1,1.8219088E-1,-4.2241115E-2,1.4465964E-1,-6.13557E-2,6.575065E-3,-2.8532705E-1],"categories":[],"categories_nodes":[],"categories_segments":[],"categories_sizes":[],"default_left":[true,true,true,true,true,false,false,false,false,false,false],"id":79,"left_children":[1,3,5,7,9,-1,-1,-1,-1,-1,-1],"loss_changes":[5.2656427E-2,8.0129564E-2,5.7167597E-2,5.6803122E-2,6.412508E-2,0E0,0E0,0E0,0E0,0E0,0E0],"parents":[2147483647,0,0,1,1,2,2,3,3,4,4],"right_children":[2,4,6,8,10,-1,-1,-1,-1,-1,-1],"split_conditions":[3.95E0,2.925E1,4.55E0,4.5E0,4.5E0,5.4657266E-2,-1.2672335E-2,4.3397892E-2,-1.840671E-2,1.9725196E-3,-8.559812E-2],"split_indices":[7,1,7,6,3,0,0,0,0,0,0],"split_type":[0,0,0,0,0,0,0,0,0,0,0],"sum_hessian":[8.766318E0,5.81986E0,2.9464586E0,3.604864E0,2.214996E0,1.2938757E0,1.6525829E0,1.2821153E0,2.3227484E0,1.099906E0,1.1150903E0],"tree_param":{"num_deleted":"0","num_feature":"8","num_nodes":"11","size_leaf_vector":"0"}},{"base_weights":[1.3788565E-2,1.0601782E-1,-3.0465068E-2,-3.409984E-2,2.0268627E-1,1.1597627E-1,-7.890398E-2,-2.4881496E-1,1.0295141E-2],"categories":[],"categories_nodes":[],"categories_segments":[],"categories_sizes":[],"default_left":[true,true,true,false,false,false,true,false,false],"id":80,"left_children":[1,3,5,-1,-1,-1,7,-1,-1],"loss_changes":[4.1962158E-2,5.161275E-2,6.0149882E-2,0E0,0E0,0E0,9.34616E-2,0E0,0E0],"parents":[2147483647,0,0,1,1,2,2,6,6],"right_children":[2,4,6,-1,-1,-1,8,-1,-1],"split_conditions":[2.85E0,3.5E0,5.5E0,-1.0229953E-2,6.0805883E-2,3.479288E-2,1.05E1,-7.464449E-2,3.0885423E-3],"split_indices":[7,6,6,0,0,0,6,0,0],"split_type":[0,0,0,0,0,0,0,0,0],"sum_hessian":[8.489774E0,2.3002088E0,6.189565E0,1.2033063E0,1.0969026E0,1.1919036E0,4.9976616E0,1.1044387E0,3.8932228E0],"tree_param":{"num_deleted":"0","num_feature":"8","num_nodes":"9","size_leaf_vector":"0"}},{"base_weights":[-1.37888305E-2,-1.0601772E-1,3.0464688E-2,3.409982E-2,-2.026861E-1,-1.15976185E-1,7.89035E-2,2.4881484E-1,-1.0295782E-2],"categories":[],"categories_nodes":[],"categories_segments":[],"categories_sizes":[],"default_left":[true,true,true,false,false,false,true,false,false],"id":81,"left_children":[1,3,5,-1,-1,-1,7,-1,-1],"loss_changes":[4.1961838E-2,5.1612668E-2,6.0149517E-2,0E0,0E0,0E0,9.346206E-2,0E0,0E0],"parents":[2147483647,0,0,1,1,2,2,6,6],"right_children":[2,4,6,-1,-1,-1,8,-1,-1],"split_conditions":[2.85E0,3.5E0,5.5E0,1.0229947E-2,-6.080583E-2,-3.4792855E-2,1.05E1,7.4644454E-2,-3.0887348E-3],"split_indices":[7,6,6,0,0,0,6,0,0],"split_type":[0,0,0,0,0,0,0,0,0],"sum_hessian":[8.489768E0,2.3002079E0,6.1895604E0,1.2033061E0,1.0969018E0,1.1919024E0,4.997658E0,1.1044393E0,3.8932185E0],"tree_param":{"num_deleted":"0","num_feature":"8","num_nodes":"9","size_leaf_vector":"0"}},{"base_weights":[1.1279999E-2,-5.1982462E-2,7.5688675E-2,-1.1421405E-1,9.352418E-2,1.7449765E-1,-6.524457E-2,5.6599546E-2,-1.9234976E-1,2.9462693E-2,2.4305534E-1],"categories":[],"categories_nodes":[],"categories_segments":[],"categories_sizes":[],"default_left":[true,true,true,true,false,true,false,false,false,false,false],"id":82,"left_children":[1,3,5,7,-1,9,-1,-1,-1,-1,-1],"loss_changes":[4.170495E-2,5.8395512E-2,8.101736E-2,6.615488E-2,0E0,2.4772927E-2,0E0,0E0,0E0,0E0,0E0],"parents":[2147483647,0,0,1,1,2,2,3,3,5,5],"right_children":[2,4,6,8,-1,10,-1,-1,-1,-1,-1],"split_conditions":[3.11E1,2.35E1,1.75E1,2.65E0,2.8057255E-2,2.75E1,-1.9573372E-2,1.6979864E-2,-5.770493E-2,8.838808E-3,7.2916605E-2],"split_indices":[1,4,4,7,0,5,0,0,0,0,0],"split_type":[0,0,0,0,0,0,0,0,0,0,0],"sum_hessian":[8.26962E0,4.2692614E0,4.000358E0,3.1409647E0,1.1282965E0,2.2116218E0,1.7887367E0,1.0723375E0,2.0686274E0,1.1687858E0,1.0428358E0],"tree_param":{"num_deleted":"0","num_feature":"8","num_nodes":"11","size_leaf_vector":"0"}},{"base_weights":[-1.128003E-2,5.198228E-2,-7.568854E-2,1.1421392E-1,-9.3524314E-2,-1.7449754E-1,6.524468E-2,-5.6599546E-2,1.9234969E-1,-2.946265E-2,-2.4305525E-1],"categories":[],"categories_nodes":[],"categories_segments":[],"categories_sizes":[],"default_left":[true,true,true,true,false,true,false,false,false,false,false],"id":83,"left_children":[1,3,5,7,-1,9,-1,-1,-1,-1,-1],"loss_changes":[4.1704737E-2,5.8395527E-2,8.101736E-2,6.615485E-2,0E0,2.4772935E-2,0E0,0E0,0E0,0E0,0E0],"parents":[2147483647,0,0,1,1,2,2,3,3,5,5],"right_children":[2,4,6,8,-1,10,-1,-1,-1,-1,-1],"split_conditions":[3.11E1,2.35E1,1.75E1,2.65E0,-2.8057296E-2,2.75E1,1.9573405E-2,-1.6979864E-2,5.7704907E-2,-8.838795E-3,-7.291658E-2],"split_indices":[1,4,4,7,0,5,0,0,0,0,0],"split_type":[0,0,0,0,0,0,0,0,0,0,0],"sum_hessian":[8.269617E0,4.26926E0,4.0003567E0,3.1409633E0,1.1282969E0,2.2116208E0,1.7887361E0,1.0723383E0,2.068625E0,1.1687859E0,1.0428349E0],"tree_param":{"num_deleted":"0","num_feature":"8","num_nodes":"11","size_leaf_vector":"0"}},{"base_weights":[1.3652552E-2,6.47724E-2,-5.8338765E-2,-2.1811076E-2,1.7514375E-1,4.708017E-2,-1.4660707E-1,1.13993205E-1,-1.0267744E-1],"categories":[],"categories_nodes":[],"categories_segments":[],"categories_sizes":[],"default_left":[true,true,true,true,false,false,false,false,false],"id":84,"left_children":[1,3,5,7,-1,-1,-1,-1,-1],"loss_changes":[3.701631E-2,5.8818575E-2,4.6693955E-2,5.6888904E-2,0E0,0E0,0E0,0E0,0E0],"parents":[2147483647,0,0,1,1,2,2,3,3],"right_children":[2,4,6,8,-1,-1,-1,-1,-1],"split_conditions":[1.15E1,8.5E0,1.15E1,2.95E0,5.2543126E-2,1.4124052E-2,-4.3982122E-2,3.4197964E-2,-3.0803233E-2],"split_indices":[2,2,4,7,0,0,0,0,0],"split_type":[0,0,0,0,0,0,0,0,0],"sum_hessian":[8.031493E0,4.7551875E0,3.2763057E0,3.1144032E0,1.6407844E0,1.7057503E0,1.5705552E0,1.0094752E0,2.104928E0],"tree_param":{"num_deleted":"0","num_feature":"8","num_nodes":"9","size_leaf_vector":"0"}},{"base_weights":[-1.3652462E-2,-6.47724E-2,5.8338955E-2,2.181101E-2,-1.7514367E-1,-4.7080077E-2,1.4660716E-1,-1.13993146E-1,1.0267728E-1],"categories":[],"categories_nodes":[],"categories_segments":[],"categories_sizes":[],"default_left":[true,true,true,true,false,false,false,false,false],"id":85,"left_children":[1,3,5,7,-1,-1,-1,-1,-1],"loss_changes":[3.701643E-2,5.881848E-2,4.669394E-2,5.688879E-2,0E0,0E0,0E0,0E0,0E0],"parents":[2147483647,0,0,1,1,2,2,3,3],"right_children":[2,4,6,8,-1,-1,-1,-1,-1],"split_conditions":[1.15E1,8.5E0,1.15E1,2.95E0,-5.2543104E-2,-1.4124024E-2,4.398215E-2,-3.4197945E-2,3.0803185E-2],"split_indices":[2,2,4,7,0,0,0,0,0],"split_type":[0,0,0,0,0,0,0,0,0],"sum_hessian":[8.031494E0,4.755188E0,3.276306E0,3.1144037E0,1.6407843E0,1.7057488E0,1.5705571E0,1.0094748E0,2.104929E0],"tree_param":{"num_deleted":"0","num_feature":"8","num_nodes":"9","size_leaf_vector":"0"}},{"base_weights":[1.2718644E-2,-2.0326389E-2,1.1563783E-1,5.1726416E-2,-1.0012889E-1,-8.003276E-2,1.5957952E-1,5.113753E-2,-1.6981317E-1],"categories":[],"categories_nodes":[],"categories_segments":[],"categories_sizes":[],"default_left":[true,true,false,true,true,false,false,false,false],"id":86,"left_children":[1,3,-1,5,7,-1,-1,-1,-1],"loss_changes":[3.251262E-2,4.8670672E-2,0E0,7.862698E-2,5.0104152E-2,0E0,0E0,0E0,0E0],"parents":[2147483647,0,0,1,1,3,3,4,4],"right_children":[2,4,-1,6,8,-1,-1,-1,-1],"split_conditions":[4.65E1,1.15E1,3.4691352E-2,1.25E1,2.95E0,-2.400983E-2,4.787386E-2,1.534126E-2,-5.0943952E-2],"split_indices":[4,4,0,5,7,0,0,0,0],"split_type":[0,0,0,0,0,0,0,0,0],"sum_hessian":[7.8686857E0,6.5637236E0,1.3049623E0,3.6342335E0,2.92949E0,1.7519289E0,1.8823045E0,1.0078546E0,1.9216355E0],"tree_param":{"num_deleted":"0","num_feature":"8","num_nodes":"9","size_leaf_vector":"0"}},{"base_weights":[-1.2718711E-2,2.0326361E-2,-1.1563802E-1,-5.1726468E-2,1.0012891E-1,8.003284E-2,-1.5957966E-1,-5.1137462E-2,1.6981313E-1],"categories":[],"categories_nodes":[],"categories_segments":[],"categories_sizes":[],"default_left":[true,true,false,true,true,false,false,false,false],"id":87,"left_children":[1,3,-1,5,7,-1,-1,-1,-1],"loss_changes":[3.2512687E-2,4.8670724E-2,0E0,7.862715E-2,5.0104093E-2,0E0,0E0,0E0,0E0],"parents":[2147483647,0,0,1,1,3,3,4,4],"right_children":[2,4,-1,6,8,-1,-1,-1,-1],"split_conditions":[4.65E1,1.15E1,-3.469141E-2,1.25E1,2.95E0,2.4009854E-2,-4.7873903E-2,-1.5341239E-2,5.094394E-2],"split_indices":[4,4,0,5,7,0,0,0,0],"split_type":[0,0,0,0,0,0,0,0,0],"sum_hessian":[7.868686E0,6.563724E0,1.304962E0,3.6342342E0,2.92949E0,1.7519292E0,1.882305E0,1.0078541E0,1.9216359E0],"tree_param":{"num_deleted":"0","num_feature":"8","num_nodes":"9","size_leaf_vector":"0"}},{"base_weights":[1.1703988E-2,2.5424984E-1,-5.3648617E-2,-1.5319875E-1,4.990846E-2,-2.6957974E-1,-2.6300883E-2,1.5239209E-1,-8.676931E-2],"categories":[],"categories_nodes":[],"categories_segments":[],"categories_sizes":[],"default_left":[true,false,true,true,true,false,false,false,false],"id":88,"left_children":[1,-1,3,5,7,-1,-1,-1,-1],"loss_changes":[1.513223E-1,0E0,8.669768E-2,5.4279335E-2,7.643349E-2,0E0,0E0,0E0,0E0],"parents":[2147483647,0,0,2,2,3,3,4,4],"right_children":[2,-1,4,6,8,-1,-1,-1,-1],"split_conditions":[5E-1,7.6274954E-2,3.11E1,4.5E0,1.05E1,-8.087392E-2,-7.890265E-3,4.5717627E-2,-2.6030796E-2],"split_indices":[0,0,1,6,2,0,0,0,0],"split_type":[0,0,0,0,0,0,0,0,0],"sum_hessian":[7.686021E0,1.0178819E0,6.668139E0,3.1554337E0,3.5127053E0,1.0594258E0,2.0960078E0,1.9417615E0,1.5709438E0],"tree_param":{"num_deleted":"0","num_feature":"8","num_nodes":"9","size_leaf_vector":"0"}},{"base_weights":[-1.170401E-2,-2.5424993E-1,5.3648636E-2,1.5319881E-1,-4.990849E-2,2.6957977E-1,2.630094E-2,-1.5239204E-1,8.6769216E-2],"categories":[],"categories_nodes":[],"categories_segments":[],"categories_sizes":[],"default_left":[true,false,true,true,true,false,false,false,false],"id":89,"left_children":[1,-1,3,5,7,-1,-1,-1,-1],"loss_changes":[1.5132245E-1,0E0,8.669776E-2,5.4279305E-2,7.643338E-2,0E0,0E0,0E0,0E0],"parents":[2147483647,0,0,2,2,3,3,4,4],"right_children":[2,-1,4,6,8,-1,-1,-1,-1],"split_conditions":[5E-1,-7.627498E-2,3.11E1,4.5E0,1.05E1,8.087394E-2,7.890282E-3,-4.5717616E-2,2.6030766E-2],"split_indices":[0,0,1,6,2,0,0,0,0],"split_type":[0,0,0,0,0,0,0,0,0],"sum_hessian":[7.686022E0,1.0178826E0,6.6681395E0,3.1554341E0,3.5127053E0,1.059426E0,2.096008E0,1.9417615E0,1.5709437E0],"tree_param":{"num_deleted":"0","num_feature":"8","num_nodes":"9","size_leaf_vector":"0"}},{"base_weights":[9.461553E-3,7.9635315E-2,-5.175665E-2,-9.431275E-3,1.849897E-1,8.866184E-2,-1.117045E-1,9.232849E-2,-1.069809E-1,-1.8504879E-1,8.020979E-3],"categories":[],"categories_nodes":[],"categories_segments":[],"categories_sizes":[],"default_left":[true,true,true,true,false,false,true,false,false,false,false],"id":90,"left_children":[1,3,5,7,-1,-1,9,-1,-1,-1,-1],"loss_changes":[3.9921857E-2,4.1875184E-2,5.2471574E-2,4.232726E-2,0E0,0E0,3.648954E-2,0E0,0E0,0E0,0E0],"parents":[2147483647,0,0,1,1,2,2,3,3,6,6],"right_children":[2,4,6,8,-1,-1,10,-1,-1,-1,-1],"split_conditions":[3.25E0,2.25E1,6.5E0,2.65E0,5.5496912E-2,2.6598554E-2,7.5E0,2.7698549E-2,-3.209427E-2,-5.5514637E-2,2.406294E-3],"split_indices":[7,4,4,7,0,0,3,0,0,0,0],"split_type":[0,0,0,0,0,0,0,0,0,0,0],"sum_hessian":[7.333551E0,3.2766821E0,4.056869E0,2.268973E0,1.007709E0,1.0704721E0,2.9863968E0,1.1367182E0,1.132255E0,1.5135694E0,1.4728274E0],"tree_param":{"num_deleted":"0","num_feature":"8","num_nodes":"11","size_leaf_vector":"0"}},{"base_weights":[-9.461452E-3,-7.963537E-2,5.1756814E-2,9.431038E-3,-1.8498956E-1,-8.866199E-2,1.1170472E-1,-9.2328735E-2,1.0698087E-1,1.8504906E-1,-8.020917E-3],"categories":[],"categories_nodes":[],"categories_segments":[],"categories_sizes":[],"default_left":[true,true,true,true,false,false,true,false,false,false,false],"id":91,"left_children":[1,3,5,7,-1,-1,9,-1,-1,-1,-1],"loss_changes":[3.9922E-2,4.1874975E-2,5.2471776E-2,4.2327367E-2,0E0,0E0,3.6489636E-2,0E0,0E0,0E0,0E0],"parents":[2147483647,0,0,1,1,2,2,3,3,6,6],"right_children":[2,4,6,8,-1,-1,10,-1,-1,-1,-1],"split_conditions":[3.25E0,2.25E1,6.5E0,2.65E0,-5.5496868E-2,-2.6598599E-2,7.5E0,-2.7698621E-2,3.2094263E-2,5.551472E-2,-2.4062751E-3],"split_indices":[7,4,4,7,0,0,3,0,0,0,0],"split_type":[0,0,0,0,0,0,0,0,0,0,0],"sum_hessian":[7.3335547E0,3.2766821E0,4.056873E0,2.2689745E0,1.0077077E0,1.0704719E0,2.9864008E0,1.1367198E0,1.1322547E0,1.5135721E0,1.4728286E0],"tree_param":{"num_deleted":"0","num_feature":"8","num_nodes":"11","size_leaf_vector":"0"}},{"base_weights":[9.791286E-3,5.6083277E-2,-6.726048E-2,-2.7603932E-2,1.5641075E-1,-1.4085709E-1,2.5728768E-2,-1.1559779E-1,4.8123945E-2],"categories":[],"categories_nodes":[],"categories_segments":[],"categories_sizes":[],"default_left":[true,true,true,true,false,false,false,false,false],"id":92,"left_children":[1,3,5,7,-1,-1,-1,-1,-1],"loss_changes":[3.282716E-2,5.1620483E-2,2.765823E-2,3.169544E-2,0E0,0E0,0E0,0E0,0E0],"parents":[2147483647,0,0,1,1,2,2,3,3],"right_children":[2,4,6,8,-1,-1,-1,-1,-1],"split_conditions":[3.95E0,2.925E1,4.55E0,4.5E0,4.6923228E-2,-4.2257126E-2,7.7186306E-3,-3.467934E-2,1.4437184E-2],"split_indices":[7,1,7,6,0,0,0,0,0],"split_type":[0,0,0,0,0,0,0,0,0],"sum_hessian":[7.1457677E0,4.633899E0,2.5118685E0,2.921674E0,1.712225E0,1.1147941E0,1.3970745E0,1.1078691E0,1.813805E0],"tree_param":{"num_deleted":"0","num_feature":"8","num_nodes":"9","size_leaf_vector":"0"}},{"base_weights":[-9.791303E-3,-5.608349E-2,6.726075E-2,2.7603664E-2,-1.564108E-1,1.4085707E-1,-2.5728296E-2,1.1559782E-1,-4.8124313E-2],"categories":[],"categories_nodes":[],"categories_segments":[],"categories_sizes":[],"default_left":[true,true,true,true,false,false,false,false,false],"id":93,"left_children":[1,3,5,7,-1,-1,-1,-1,-1],"loss_changes":[3.282743E-2,5.1620334E-2,2.7658029E-2,3.1695616E-2,0E0,0E0,0E0,0E0,0E0],"parents":[2147483647,0,0,1,1,2,2,3,3],"right_children":[2,4,6,8,-1,-1,-1,-1,-1],"split_conditions":[3.95E0,2.925E1,4.55E0,4.5E0,-4.6923243E-2,4.2257123E-2,-7.718489E-3,3.467935E-2,-1.4437295E-2],"split_indices":[7,1,7,6,0,0,0,0,0],"split_type":[0,0,0,0,0,0,0,0,0],"sum_hessian":[7.1457705E0,4.6339E0,2.5118706E0,2.9216747E0,1.7122253E0,1.1147944E0,1.3970762E0,1.1078689E0,1.8138057E0],"tree_param":{"num_deleted":"0","num_feature":"8","num_nodes":"9","size_leaf_vector":"0"}},{"base_weights":[6.030741E-3,6.6052526E-2,-4.4389464E-2,-4.85481E-2,1.3428666E-1,3.8640596E-2,-1.3313751E-1,-5.958269E-2,1.09375045E-1],"categories":[],"categories_nodes":[],"categories_segments":[],"categories_sizes":[],"default_left":[true,true,true,false,false,true,false,false,false],"id":94,"left_children":[1,3,5,-1,-1,7,-1,-1,-1],"loss_changes":[2.7168643E-2,3.8252495E-2,4.1623652E-2,0E0,0E0,2.9671742E-2,0E0,0E0,0E0],"parents":[2147483647,0,0,1,1,2,2,5,5],"right_children":[2,4,6,-1,-1,8,-1,-1,-1],"split_conditions":[3.25E0,4.5E0,2.05E1,-1.456443E-2,4.0285997E-2,3.7199997E1,-3.9941255E-2,-1.7874809E-2,3.2812513E-2],"split_indices":[7,6,4,0,0,1,0,0,0],"split_type":[0,0,0,0,0,0,0,0,0],"sum_hessian":[7.0086308E0,3.0581148E0,3.950516E0,1.2489629E0,1.8091518E0,2.3327072E0,1.6178087E0,1.0425951E0,1.290112E0],"tree_param":{"num_deleted":"0","num_feature":"8","num_nodes":"9","size_leaf_vector":"0"}},{"base_weights":[-6.0305865E-3,-6.605239E-2,4.438956E-2,4.8548076E-2,-1.3428646E-1,-3.8640607E-2,1.3313769E-1,5.958269E-2,-1.0937508E-1],"categories":[],"categories_nodes":[],"categories_segments":[],"categories_sizes":[],"default_left":[true,true,true,false,false,true,false,false,false],"id":95,"left_children":[1,3,5,-1,-1,7,-1,-1,-1],"loss_changes":[2.7168626E-2,3.82524E-2,4.1623767E-2,0E0,0E0,2.9671764E-2,0E0,0E0,0E0],"parents":[2147483647,0,0,1,1,2,2,5,5],"right_children":[2,4,6,-1,-1,8,-1,-1,-1],"split_conditions":[3.25E0,4.5E0,2.05E1,1.4564424E-2,-4.028594E-2,3.7199997E1,3.9941307E-2,1.7874809E-2,-3.2812525E-2],"split_indices":[7,6,4,0,0,1,0,0,0],"split_type":[0,0,0,0,0,0,0,0,0],"sum_hessian":[7.008631E0,3.058113E0,3.9505184E0,1.2489626E0,1.8091505E0,2.3327081E0,1.6178101E0,1.0425959E0,1.2901124E0],"tree_param":{"num_deleted":"0","num_feature":"8","num_nodes":"9","size_leaf_vector":"0"}},{"base_weights":[4.4329264E-3,3.395212E-2,-8.19044E-2,-2.253776E-2,1.4055896E-1,7.867784E-2,-6.702494E-2],"categories":[],"categories_nodes":[],"categories_segments":[],"categories_sizes":[],"default_left":[true,true,false,true,false,false,false],"id":96,"left_children":[1,3,-1,5,-1,-1,-1],"loss_changes":[2.286664E-2,4.279405E-2,0E0,2.8520329E-2,0E0,0E0,0E0],"parents":[2147483647,0,0,1,1,3,3],"right_children":[2,4,-1,6,-1,-1,-1],"split_conditions":[1.85E1,2.95E1,-2.457132E-2,2.65E0,4.216769E-2,2.3603354E-2,-2.0107482E-2],"split_indices":[2,4,0,7,0,0,0],"split_type":[0,0,0,0,0,0,0],"sum_hessian":[6.8810906E0,5.5800066E0,1.3010838E0,4.1627812E0,1.4172255E0,1.0363544E0,3.1264267E0],"tree_param":{"num_deleted":"0","num_feature":"8","num_nodes":"7","size_leaf_vector":"0"}},{"base_weights":[-4.432835E-3,-3.3951968E-2,8.190428E-2,2.2537878E-2,-1.405588E-1,-7.867783E-2,6.702508E-2],"categories":[],"categories_nodes":[],"categories_segments":[],"categories_sizes":[],"default_left":[true,true,false,true,false,false,false],"id":97,"left_children":[1,3,-1,5,-1,-1,-1],"loss_changes":[2.286654E-2,4.279405E-2,0E0,2.8520387E-2,0E0,0E0,0E0],"parents":[2147483647,0,0,1,1,3,3],"right_children":[2,4,-1,6,-1,-1,-1],"split_conditions":[1.85E1,2.95E1,2.4571285E-2,2.65E0,-4.216764E-2,-2.3603352E-2,2.0107524E-2],"split_indices":[2,4,0,7,0,0,0],"split_type":[0,0,0,0,0,0,0],"sum_hessian":[6.881094E0,5.5800095E0,1.3010846E0,4.1627827E0,1.4172264E0,1.0363549E0,3.126428E0],"tree_param":{"num_deleted":"0","num_feature":"8","num_nodes":"7","size_leaf_vector":"0"}},{"base_weights":[5.9307525E-3,-3.904535E-2,5.278733E-2,-8.6629145E-2,4.9656212E-2,1.5741344E-1,-5.057358E-2,-1.773309E-2,-1.189166E-1],"categories":[],"categories_nodes":[],"categories_segments":[],"categories_sizes":[],"default_left":[true,true,true,true,false,false,false,false,false],"id":98,"left_children":[1,3,5,7,-1,-1,-1,-1,-1],"loss_changes":[1.8494556E-2,2.3521315E-2,5.3859673E-2,5.2944683E-3,0E0,0E0,0E0,0E0,0E0],"parents":[2147483647,0,0,1,1,2,2,3,3],"right_children":[2,4,6,8,-1,-1,-1,-1,-1],"split_conditions":[3.11E1,1.85E1,9.5E0,1.375E1,1.4896864E-2,4.7224034E-2,-1.5172075E-2,-5.319927E-3,-3.567498E-2],"split_indices":[1,4,4,1,0,0,0,0,0],"split_type":[0,0,0,0,0,0,0,0,0],"sum_hessian":[6.7978806E0,3.5536005E0,3.24428E0,2.3280735E0,1.225527E0,1.3523883E0,1.8918917E0,1.2372383E0,1.0908351E0],"tree_param":{"num_deleted":"0","num_feature":"8","num_nodes":"9","size_leaf_vector":"0"}},{"base_weights":[-5.9306915E-3,3.9045397E-2,-5.278729E-2,8.662895E-2,-4.9655877E-2,-1.5741351E-1,5.0573774E-2,1.7732924E-2,1.1891647E-1],"categories":[],"categories_nodes":[],"categories_segments":[],"categories_sizes":[],"default_left":[true,true,true,true,false,false,false,false,false],"id":99,"left_children":[1,3,5,7,-1,-1,-1,-1,-1],"loss_changes":[1.8494558E-2,2.352112E-2,5.3859808E-2,5.294502E-3,0E0,0E0,0E0,0E0,0E0],"parents":[2147483647,0,0,1,1,2,2,3,3],"right_children":[2,4,6,8,-1,-1,-1,-1,-1],"split_conditions":[3.11E1,1.85E1,9.5E0,1.375E1,-1.48967635E-2,-4.7224056E-2,1.5172132E-2,5.3198775E-3,3.567494E-2],"split_indices":[1,4,4,1,0,0,0,0,0],"split_type":[0,0,0,0,0,0,0,0,0],"sum_hessian":[6.7978797E0,3.5536008E0,3.2442787E0,2.3280745E0,1.2255262E0,1.3523886E0,1.8918902E0,1.2372386E0,1.0908359E0],"tree_param":{"num_deleted":"0","num_feature":"8","num_nodes":"9","size_leaf_vector":"0"}},{"base_weights":[5.072398E-3,4.4386134E-2,-5.7898425E-2,-3.0906223E-2,1.389059E-1,-1.0708399E-1,1.0388038E-2,3.71081E-2,-7.211423E-2],"categories":[],"categories_nodes":[],"categories_segments":[],"categories_sizes":[],"default_left":[true,true,true,true,false,false,false,false,false],"id":100,"left_children":[1,3,5,7,-1,-1,-1,-1,-1],"loss_changes":[2.1636266E-2,4.2064715E-2,1.2512293E-2,1.3248617E-2,0E0,0E0,0E0,0E0,0E0],"parents":[2147483647,0,0,1,1,2,2,3,3],"right_children":[2,4,6,8,-1,-1,-1,-1,-1],"split_conditions":[3.95E0,2.925E1,4.55E0,1.155E1,4.167177E-2,-3.2125197E-2,3.1164116E-3,1.113243E-2,-2.163427E-2],"split_indices":[7,1,7,1,0,0,0,0,0],"split_type":[0,0,0,0,0,0,0,0,0],"sum_hessian":[6.701663E0,4.307531E0,2.394132E0,2.7722423E0,1.5352887E0,1.061438E0,1.3326939E0,1.0834643E0,1.688778E0],"tree_param":{"num_deleted":"0","num_feature":"8","num_nodes":"9","size_leaf_vector":"0"}},{"base_weights":[-5.072386E-3,-4.438614E-2,5.7898425E-2,3.0906197E-2,-1.3890585E-1,1.0708429E-1,-1.0388396E-2,-3.7108187E-2,7.2114274E-2],"categories":[],"categories_nodes":[],"categories_segments":[],"categories_sizes":[],"default_left":[true,true,true,true,false,false,false,false,false],"id":101,"left_children":[1,3,5,7,-1,-1,-1,-1,-1],"loss_changes":[2.1636268E-2,4.2064674E-2,1.2512465E-2,1.32486485E-2,0E0,0E0,0E0,0E0,0E0],"parents":[2147483647,0,0,1,1,2,2,3,3],"right_children":[2,4,6,8,-1,-1,-1,-1,-1],"split_conditions":[3.95E0,2.925E1,4.55E0,1.155E1,-4.1671757E-2,3.2125287E-2,-3.116519E-3,-1.1132456E-2,2.1634283E-2],"split_indices":[7,1,7,1,0,0,0,0,0],"split_type":[0,0,0,0,0,0,0,0,0],"sum_hessian":[6.701662E0,4.3075294E0,2.3941326E0,2.772241E0,